FANN_FLO_2.1
num_layers=3
learning_rate=0.700000
connection_rate=1.000000
network_type=0
learning_momentum=0.600000
training_algorithm=2
train_error_function=1
train_stop_function=0
cascade_output_change_fraction=0.010000
quickprop_decay=-0.000100
quickprop_mu=1.750000
rprop_increase_factor=1.200000
rprop_decrease_factor=0.500000
rprop_delta_min=0.000000
rprop_delta_max=50.000000
rprop_delta_zero=0.100000
cascade_output_stagnation_epochs=12
cascade_candidate_change_fraction=0.010000
cascade_candidate_stagnation_epochs=12
cascade_max_out_epochs=150
cascade_min_out_epochs=50
cascade_max_cand_epochs=150
cascade_min_cand_epochs=50
cascade_num_candidate_groups=2
bit_fail_limit=3.49999994039535522461e-01
cascade_candidate_limit=1.00000000000000000000e+03
cascade_weight_multiplier=4.00000005960464477539e-01
cascade_activation_functions_count=10
cascade_activation_functions=3 5 7 8 10 11 14 15 16 17 
cascade_activation_steepnesses_count=4
cascade_activation_steepnesses=2.50000000000000000000e-01 5.00000000000000000000e-01 7.50000000000000000000e-01 1.00000000000000000000e+00 
layer_sizes=4 21 2 
scale_included=0
neurons (num_inputs, activation_function, activation_steepness)=(0, 0, 0.00000000000000000000e+00) (0, 0, 0.00000000000000000000e+00) (0, 0, 0.00000000000000000000e+00) (0, 0, 0.00000000000000000000e+00) (4, 4, 5.00000000000000000000e-01) (4, 4, 5.00000000000000000000e-01) (4, 4, 5.00000000000000000000e-01) (4, 4, 5.00000000000000000000e-01) (4, 4, 5.00000000000000000000e-01) (4, 4, 5.00000000000000000000e-01) (4, 4, 5.00000000000000000000e-01) (4, 4, 5.00000000000000000000e-01) (4, 4, 5.00000000000000000000e-01) (4, 4, 5.00000000000000000000e-01) (4, 4, 5.00000000000000000000e-01) (4, 4, 5.00000000000000000000e-01) (4, 4, 5.00000000000000000000e-01) (4, 4, 5.00000000000000000000e-01) (4, 4, 5.00000000000000000000e-01) (4, 4, 5.00000000000000000000e-01) (4, 4, 5.00000000000000000000e-01) (4, 4, 5.00000000000000000000e-01) (4, 4, 5.00000000000000000000e-01) (4, 4, 5.00000000000000000000e-01) (0, 0, 0.00000000000000000000e+00) (21, 5, 5.00000000000000000000e-01) (0, 5, 0.00000000000000000000e+00) 
connections (connected_to_neuron, weight)=(0, -3.83791089057922363281e-01) (1, 3.37244451045989990234e-01) (2, 3.62806618213653564453e-01) (3, 4.94088351726531982422e-01) (0, -4.40881192684173583984e-01) (1, 4.22356009483337402344e-01) (2, 4.98979806900024414062e-01) (3, 4.80021893978118896484e-01) (0, 1.17645405232906341553e-01) (1, 2.57585123181343078613e-02) (2, 9.67170745134353637695e-02) (3, 7.24114477634429931641e-04) (0, -4.34834837913513183594e-01) (1, 3.46283167600631713867e-01) (2, 4.52334940433502197266e-01) (3, 5.09240686893463134766e-01) (0, -3.96188735961914062500e-01) (1, 3.42810869216918945312e-01) (2, 3.89536380767822265625e-01) (3, 4.81926620006561279297e-01) (0, 2.68043428659439086914e-02) (1, 7.71172046661376953125e-02) (2, 8.52934420108795166016e-02) (3, 9.72008109092712402344e-02) (0, 1.41456201672554016113e-02) (1, -8.52046534419059753418e-02) (2, -8.76869186758995056152e-02) (3, -3.39510664343833923340e-02) (0, 4.45053055882453918457e-02) (1, 3.93464341759681701660e-02) (2, 3.71941551566123962402e-02) (3, 1.01514227688312530518e-01) (0, -4.09009158611297607422e-01) (1, 4.88000750541687011719e-01) (2, 4.83602583408355712891e-01) (3, 3.60509753227233886719e-01) (0, 4.47567254304885864258e-02) (1, 2.09823325276374816895e-02) (2, 7.89315551519393920898e-02) (3, 5.84021285176277160645e-02) (0, 3.07408422231674194336e-02) (1, 6.36486187577247619629e-02) (2, -5.28737679123878479004e-02) (3, 3.67060601711273193359e-02) (0, 1.69131755828857421875e-01) (1, 6.26611337065696716309e-02) (2, 9.14670526981353759766e-03) (3, 1.37430727481842041016e-02) (0, -3.80128055810928344727e-01) (1, 4.86683070659637451172e-01) (2, 3.83669734001159667969e-01) (3, 5.12276351451873779297e-01) (0, -4.21799778938293457031e-01) (1, 3.56963157653808593750e-01) (2, 4.97477173805236816406e-01) (3, 4.57945883274078369141e-01) (0, 3.09584736824035644531e-02) (1, 7.29902088642120361328e-02) (2, 8.71947854757308959961e-02) (3, -2.85362228751182556152e-02) (0, -4.48463380336761474609e-01) (1, 4.37188982963562011719e-01) (2, 3.85778039693832397461e-01) (3, 3.52927505970001220703e-01) (0, -4.85210359096527099609e-01) (1, 5.32580614089965820312e-01) (2, 3.76637220382690429688e-01) (3, 4.25146400928497314453e-01) (0, -4.32037115097045898438e-01) (1, 3.43568772077560424805e-01) (2, 3.71548533439636230469e-01) (3, 4.64303791522979736328e-01) (0, 1.66417360305786132812e-01) (1, -1.81252583861351013184e-02) (2, -3.57901975512504577637e-02) (3, 3.15491110086441040039e-02) (0, 2.85358726978302001953e-02) (1, 6.13564997911453247070e-02) (2, -6.67078122496604919434e-02) (3, 8.92078503966331481934e-02) (4, -4.37560498714447021484e-01) (5, -4.68638181686401367188e-01) (6, -3.84115874767303466797e-01) (7, -5.22560238838195800781e-01) (8, -4.48475003242492675781e-01) (9, -4.23438727855682373047e-01) (10, -4.01414424180984497070e-01) (11, -4.25516545772552490234e-01) (12, -4.62448537349700927734e-01) (13, -4.26219642162322998047e-01) (14, -3.66052806377410888672e-01) (15, -3.74111890792846679688e-01) (16, -5.25830686092376708984e-01) (17, -5.17074763774871826172e-01) (18, -3.57984423637390136719e-01) (19, -4.74241018295288085938e-01) (20, -5.21294176578521728516e-01) (21, -5.18147230148315429688e-01) (22, -3.85894656181335449219e-01) (23, -4.16531324386596679688e-01) (24, -5.11378467082977294922e-01) 
