FANN_FLO_2.1
num_layers=3
learning_rate=0.700000
connection_rate=1.000000
network_type=0
learning_momentum=0.600000
training_algorithm=2
train_error_function=1
train_stop_function=0
cascade_output_change_fraction=0.010000
quickprop_decay=-0.000100
quickprop_mu=1.750000
rprop_increase_factor=1.200000
rprop_decrease_factor=0.500000
rprop_delta_min=0.000000
rprop_delta_max=50.000000
rprop_delta_zero=0.100000
cascade_output_stagnation_epochs=12
cascade_candidate_change_fraction=0.010000
cascade_candidate_stagnation_epochs=12
cascade_max_out_epochs=150
cascade_min_out_epochs=50
cascade_max_cand_epochs=150
cascade_min_cand_epochs=50
cascade_num_candidate_groups=2
bit_fail_limit=3.49999994039535522461e-01
cascade_candidate_limit=1.00000000000000000000e+03
cascade_weight_multiplier=4.00000005960464477539e-01
cascade_activation_functions_count=10
cascade_activation_functions=3 5 7 8 10 11 14 15 16 17 
cascade_activation_steepnesses_count=4
cascade_activation_steepnesses=2.50000000000000000000e-01 5.00000000000000000000e-01 7.50000000000000000000e-01 1.00000000000000000000e+00 
layer_sizes=4 21 2 
scale_included=0
neurons (num_inputs, activation_function, activation_steepness)=(0, 0, 0.00000000000000000000e+00) (0, 0, 0.00000000000000000000e+00) (0, 0, 0.00000000000000000000e+00) (0, 0, 0.00000000000000000000e+00) (4, 4, 5.00000000000000000000e-01) (4, 4, 5.00000000000000000000e-01) (4, 4, 5.00000000000000000000e-01) (4, 4, 5.00000000000000000000e-01) (4, 4, 5.00000000000000000000e-01) (4, 4, 5.00000000000000000000e-01) (4, 4, 5.00000000000000000000e-01) (4, 4, 5.00000000000000000000e-01) (4, 4, 5.00000000000000000000e-01) (4, 4, 5.00000000000000000000e-01) (4, 4, 5.00000000000000000000e-01) (4, 4, 5.00000000000000000000e-01) (4, 4, 5.00000000000000000000e-01) (4, 4, 5.00000000000000000000e-01) (4, 4, 5.00000000000000000000e-01) (4, 4, 5.00000000000000000000e-01) (4, 4, 5.00000000000000000000e-01) (4, 4, 5.00000000000000000000e-01) (4, 4, 5.00000000000000000000e-01) (4, 4, 5.00000000000000000000e-01) (0, 0, 0.00000000000000000000e+00) (21, 5, 5.00000000000000000000e-01) (0, 5, 0.00000000000000000000e+00) 
connections (connected_to_neuron, weight)=(0, -4.11774063110351562500e+01) (1, -3.01228466033935546875e+01) (2, 4.22622756958007812500e+01) (3, 1.37340745925903320312e+01) (0, -5.34409790039062500000e+01) (1, 1.04241275787353515625e+01) (2, 4.38582534790039062500e+01) (3, 1.94307632446289062500e+01) (0, 1.95831771850585937500e+02) (1, 3.83453735351562500000e+02) (2, -4.06849639892578125000e+02) (3, -7.48565750122070312500e+01) (0, -2.20958099365234375000e+01) (1, -1.37522344589233398438e+01) (2, -2.30802898406982421875e+01) (3, -2.57679867744445800781e+00) (0, 7.36333923339843750000e+02) (1, 1.50000000000000000000e+03) (2, -1.28638415527343750000e+03) (3, -1.64490756988525390625e+01) (0, -7.99409027099609375000e+01) (1, 4.88771118164062500000e+02) (2, 1.50000000000000000000e+03) (3, 3.95625915527343750000e+01) (0, 1.82641334533691406250e+01) (1, 5.48415718078613281250e+01) (2, -2.35658073425292968750e+01) (3, -5.69697713851928710938e+00) (0, 6.07372550964355468750e+01) (1, -7.33816986083984375000e+01) (2, -3.47511215209960937500e+01) (3, -1.78173220157623291016e+00) (0, 4.49030151367187500000e+01) (1, 9.19388046264648437500e+01) (2, 8.49587249755859375000e+01) (3, 1.66793308258056640625e+01) (0, 3.11143722534179687500e+01) (1, -4.95475845336914062500e+01) (2, -3.29501686096191406250e+01) (3, -4.67478704452514648438e+00) (0, 7.03070306777954101562e+00) (1, -3.50434350967407226562e+00) (2, -5.99604606628417968750e+00) (3, -4.75831174850463867188e+00) (0, 9.22039031982421875000e+00) (1, 6.15337104797363281250e+01) (2, 6.63251876831054687500e+01) (3, 1.57855310440063476562e+01) (0, 5.90185791015625000000e+02) (1, 1.50000000000000000000e+03) (2, -1.50000000000000000000e+03) (3, -4.71223526000976562500e+01) (0, -3.18326644897460937500e+01) (1, 1.47780418395996093750e+01) (2, -3.07181415557861328125e+01) (3, -5.25565338134765625000e+00) (0, 3.68295884132385253906e+00) (1, 8.33648193359375000000e+02) (2, -8.85759948730468750000e+02) (3, -9.82203674316406250000e+01) (0, -1.23784694671630859375e+01) (1, 2.30469074249267578125e+01) (2, 4.37619400024414062500e+00) (3, 1.06748075485229492188e+01) (0, 1.09205663204193115234e+00) (1, 2.14385223388671875000e+01) (2, 1.04774990081787109375e+01) (3, 9.82277679443359375000e+00) (0, 5.14074157714843750000e+02) (1, 6.43470214843750000000e+02) (2, -1.50000000000000000000e+03) (3, -1.20462141036987304688e+01) (0, 2.77958602905273437500e+01) (1, -2.38677711486816406250e+01) (2, 6.49081087112426757812e+00) (3, -1.14138011932373046875e+01) (0, -7.57218956947326660156e-01) (1, 2.60835056304931640625e+01) (2, 1.33394498825073242188e+01) (3, 1.22995176315307617188e+01) (4, -1.11192617416381835938e+01) (5, -8.15721416473388671875e+00) (6, 6.07580299377441406250e+01) (7, 6.90682296752929687500e+01) (8, 7.42660951614379882812e+00) (9, -1.28340196609497070312e+00) (10, 2.75256633758544921875e+01) (11, 2.89547977447509765625e+01) (12, -6.24609518051147460938e+00) (13, 3.38581123352050781250e+01) (14, 5.48327674865722656250e+01) (15, -1.40447645187377929688e+01) (16, 3.72940158843994140625e+00) (17, 7.44805145263671875000e+01) (18, 3.08518562316894531250e+01) (19, -1.32548952102661132812e+01) (20, -2.49879550933837890625e+00) (21, 3.98450517654418945312e+00) (22, -4.42910079956054687500e+01) (23, -1.03132476806640625000e+01) (24, 1.38079357147216796875e+00) 
