FANN_FLO_2.1
num_layers=3
learning_rate=0.700000
connection_rate=1.000000
network_type=0
learning_momentum=0.400000
training_algorithm=0
train_error_function=1
train_stop_function=0
cascade_output_change_fraction=0.010000
quickprop_decay=-0.000100
quickprop_mu=1.750000
rprop_increase_factor=1.200000
rprop_decrease_factor=0.500000
rprop_delta_min=0.000000
rprop_delta_max=50.000000
rprop_delta_zero=0.100000
cascade_output_stagnation_epochs=12
cascade_candidate_change_fraction=0.010000
cascade_candidate_stagnation_epochs=12
cascade_max_out_epochs=150
cascade_min_out_epochs=50
cascade_max_cand_epochs=150
cascade_min_cand_epochs=50
cascade_num_candidate_groups=2
bit_fail_limit=3.49999994039535522461e-01
cascade_candidate_limit=1.00000000000000000000e+03
cascade_weight_multiplier=4.00000005960464477539e-01
cascade_activation_functions_count=10
cascade_activation_functions=3 5 7 8 10 11 14 15 16 17 
cascade_activation_steepnesses_count=4
cascade_activation_steepnesses=2.50000000000000000000e-01 5.00000000000000000000e-01 7.50000000000000000000e-01 1.00000000000000000000e+00 
layer_sizes=49 97 4 
scale_included=0
neurons (num_inputs, activation_function, activation_steepness)=(0, 0, 0.00000000000000000000e+00) (0, 0, 0.00000000000000000000e+00) (0, 0, 0.00000000000000000000e+00) (0, 0, 0.00000000000000000000e+00) (0, 0, 0.00000000000000000000e+00) (0, 0, 0.00000000000000000000e+00) (0, 0, 0.00000000000000000000e+00) (0, 0, 0.00000000000000000000e+00) (0, 0, 0.00000000000000000000e+00) (0, 0, 0.00000000000000000000e+00) (0, 0, 0.00000000000000000000e+00) (0, 0, 0.00000000000000000000e+00) (0, 0, 0.00000000000000000000e+00) (0, 0, 0.00000000000000000000e+00) (0, 0, 0.00000000000000000000e+00) (0, 0, 0.00000000000000000000e+00) (0, 0, 0.00000000000000000000e+00) (0, 0, 0.00000000000000000000e+00) (0, 0, 0.00000000000000000000e+00) (0, 0, 0.00000000000000000000e+00) (0, 0, 0.00000000000000000000e+00) (0, 0, 0.00000000000000000000e+00) (0, 0, 0.00000000000000000000e+00) (0, 0, 0.00000000000000000000e+00) (0, 0, 0.00000000000000000000e+00) (0, 0, 0.00000000000000000000e+00) (0, 0, 0.00000000000000000000e+00) (0, 0, 0.00000000000000000000e+00) (0, 0, 0.00000000000000000000e+00) (0, 0, 0.00000000000000000000e+00) (0, 0, 0.00000000000000000000e+00) (0, 0, 0.00000000000000000000e+00) (0, 0, 0.00000000000000000000e+00) (0, 0, 0.00000000000000000000e+00) (0, 0, 0.00000000000000000000e+00) (0, 0, 0.00000000000000000000e+00) (0, 0, 0.00000000000000000000e+00) (0, 0, 0.00000000000000000000e+00) (0, 0, 0.00000000000000000000e+00) (0, 0, 0.00000000000000000000e+00) (0, 0, 0.00000000000000000000e+00) (0, 0, 0.00000000000000000000e+00) (0, 0, 0.00000000000000000000e+00) (0, 0, 0.00000000000000000000e+00) (0, 0, 0.00000000000000000000e+00) (0, 0, 0.00000000000000000000e+00) (0, 0, 0.00000000000000000000e+00) (0, 0, 0.00000000000000000000e+00) (0, 0, 0.00000000000000000000e+00) (49, 4, 5.00000000000000000000e-01) (49, 4, 5.00000000000000000000e-01) (49, 4, 5.00000000000000000000e-01) (49, 4, 5.00000000000000000000e-01) (49, 4, 5.00000000000000000000e-01) (49, 4, 5.00000000000000000000e-01) (49, 4, 5.00000000000000000000e-01) (49, 4, 5.00000000000000000000e-01) (49, 4, 5.00000000000000000000e-01) (49, 4, 5.00000000000000000000e-01) (49, 4, 5.00000000000000000000e-01) (49, 4, 5.00000000000000000000e-01) (49, 4, 5.00000000000000000000e-01) (49, 4, 5.00000000000000000000e-01) (49, 4, 5.00000000000000000000e-01) (49, 4, 5.00000000000000000000e-01) (49, 4, 5.00000000000000000000e-01) (49, 4, 5.00000000000000000000e-01) (49, 4, 5.00000000000000000000e-01) (49, 4, 5.00000000000000000000e-01) (49, 4, 5.00000000000000000000e-01) (49, 4, 5.00000000000000000000e-01) (49, 4, 5.00000000000000000000e-01) (49, 4, 5.00000000000000000000e-01) (49, 4, 5.00000000000000000000e-01) (49, 4, 5.00000000000000000000e-01) (49, 4, 5.00000000000000000000e-01) (49, 4, 5.00000000000000000000e-01) (49, 4, 5.00000000000000000000e-01) (49, 4, 5.00000000000000000000e-01) (49, 4, 5.00000000000000000000e-01) (49, 4, 5.00000000000000000000e-01) (49, 4, 5.00000000000000000000e-01) (49, 4, 5.00000000000000000000e-01) (49, 4, 5.00000000000000000000e-01) (49, 4, 5.00000000000000000000e-01) (49, 4, 5.00000000000000000000e-01) (49, 4, 5.00000000000000000000e-01) (49, 4, 5.00000000000000000000e-01) (49, 4, 5.00000000000000000000e-01) (49, 4, 5.00000000000000000000e-01) (49, 4, 5.00000000000000000000e-01) (49, 4, 5.00000000000000000000e-01) (49, 4, 5.00000000000000000000e-01) (49, 4, 5.00000000000000000000e-01) (49, 4, 5.00000000000000000000e-01) (49, 4, 5.00000000000000000000e-01) (49, 4, 5.00000000000000000000e-01) (49, 4, 5.00000000000000000000e-01) (49, 4, 5.00000000000000000000e-01) (49, 4, 5.00000000000000000000e-01) (49, 4, 5.00000000000000000000e-01) (49, 4, 5.00000000000000000000e-01) (49, 4, 5.00000000000000000000e-01) (49, 4, 5.00000000000000000000e-01) (49, 4, 5.00000000000000000000e-01) (49, 4, 5.00000000000000000000e-01) (49, 4, 5.00000000000000000000e-01) (49, 4, 5.00000000000000000000e-01) (49, 4, 5.00000000000000000000e-01) (49, 4, 5.00000000000000000000e-01) (49, 4, 5.00000000000000000000e-01) (49, 4, 5.00000000000000000000e-01) (49, 4, 5.00000000000000000000e-01) (49, 4, 5.00000000000000000000e-01) (49, 4, 5.00000000000000000000e-01) (49, 4, 5.00000000000000000000e-01) (49, 4, 5.00000000000000000000e-01) (49, 4, 5.00000000000000000000e-01) (49, 4, 5.00000000000000000000e-01) (49, 4, 5.00000000000000000000e-01) (49, 4, 5.00000000000000000000e-01) (49, 4, 5.00000000000000000000e-01) (49, 4, 5.00000000000000000000e-01) (49, 4, 5.00000000000000000000e-01) (49, 4, 5.00000000000000000000e-01) (49, 4, 5.00000000000000000000e-01) (49, 4, 5.00000000000000000000e-01) (49, 4, 5.00000000000000000000e-01) (49, 4, 5.00000000000000000000e-01) (49, 4, 5.00000000000000000000e-01) (49, 4, 5.00000000000000000000e-01) (49, 4, 5.00000000000000000000e-01) (49, 4, 5.00000000000000000000e-01) (49, 4, 5.00000000000000000000e-01) (49, 4, 5.00000000000000000000e-01) (49, 4, 5.00000000000000000000e-01) (49, 4, 5.00000000000000000000e-01) (49, 4, 5.00000000000000000000e-01) (49, 4, 5.00000000000000000000e-01) (49, 4, 5.00000000000000000000e-01) (49, 4, 5.00000000000000000000e-01) (49, 4, 5.00000000000000000000e-01) (49, 4, 5.00000000000000000000e-01) (49, 4, 5.00000000000000000000e-01) (49, 4, 5.00000000000000000000e-01) (0, 0, 0.00000000000000000000e+00) (97, 4, 5.00000000000000000000e-01) (97, 4, 5.00000000000000000000e-01) (97, 4, 5.00000000000000000000e-01) (0, 0, 0.00000000000000000000e+00) 
connections (connected_to_neuron, weight)=(0, -1.39076218008995056152e-01) (1, -1.25878810882568359375e-01) (2, -9.60780829191207885742e-02) (3, -1.35337650775909423828e-01) (4, -2.01425820589065551758e-01) (5, 3.71217057108879089355e-02) (6, -1.30269199609756469727e-01) (7, -8.84045585989952087402e-02) (8, -8.38054642081260681152e-02) (9, -5.07704354822635650635e-02) (10, -2.17293888330459594727e-01) (11, -1.96098327636718750000e-01) (12, -1.46342530846595764160e-01) (13, -1.62782818078994750977e-01) (14, -1.20193175971508026123e-01) (15, 5.59984240680932998657e-03) (16, 5.39035722613334655762e-02) (17, 1.05143403634428977966e-02) (18, -1.94493636488914489746e-01) (19, -2.58399397134780883789e-01) (20, -1.41810536384582519531e-01) (21, -2.07376047968864440918e-01) (22, -1.72485649585723876953e-01) (23, -5.28429970145225524902e-02) (24, 3.95769625902175903320e-02) (25, -1.13035209476947784424e-01) (26, 6.59839585423469543457e-02) (27, -2.18322947621345520020e-01) (28, -2.45935887098312377930e-01) (29, -9.14189890027046203613e-02) (30, -5.34628666937351226807e-02) (31, -5.05304224789142608643e-02) (32, -1.35920569300651550293e-01) (33, -1.05068005621433258057e-01) (34, -1.27990037202835083008e-01) (35, -1.66161000728607177734e-01) (36, -2.77869135141372680664e-01) (37, -1.73110678791999816895e-01) (38, -3.55871953070163726807e-02) (39, -8.88175219297409057617e-02) (40, -1.60919800400733947754e-01) (41, 1.88608784228563308716e-02) (42, -6.86790049076080322266e-02) (43, -4.05570380389690399170e-02) (44, -1.70233532786369323730e-01) (45, -6.77414413075894117355e-04) (46, -1.93360988050699234009e-02) (47, -1.33488744497299194336e-01) (48, -1.56075477600097656250e+00) (0, -1.11150786280632019043e-01) (1, -1.30129456520080566406e-01) (2, -1.91926434636116027832e-01) (3, -2.06156834959983825684e-01) (4, -2.35214501619338989258e-01) (5, -3.00464443862438201904e-02) (6, -4.10687774419784545898e-02) (7, -3.04876677691936492920e-02) (8, 5.42656481266021728516e-02) (9, -1.74085512757301330566e-01) (10, -1.97343811392784118652e-01) (11, -1.63599923253059387207e-01) (12, -2.24230766296386718750e-01) (13, -9.50901731848716735840e-02) (14, 2.47860737144947052002e-02) (15, -3.31567414104938507080e-02) (16, -1.16471722722053527832e-01) (17, -3.52023243904113769531e-01) (18, -7.61330947279930114746e-02) (19, -1.83649808168411254883e-01) (20, -1.17267251014709472656e-01) (21, -2.68429636955261230469e-01) (22, -2.58324146270751953125e-01) (23, -1.00593037903308868408e-01) (24, -2.72329360246658325195e-01) (25, -2.82211482524871826172e-01) (26, -3.19081515073776245117e-01) (27, -2.06897437572479248047e-01) (28, -3.74210000038146972656e-01) (29, -2.46308580040931701660e-01) (30, -2.02989310026168823242e-01) (31, -2.77035325765609741211e-01) (32, -1.58532992005348205566e-01) (33, -2.46086478233337402344e-01) (34, -3.05912524461746215820e-01) (35, -4.02768343687057495117e-01) (36, -2.48378053307533264160e-01) (37, -1.36394038796424865723e-01) (38, -2.55006730556488037109e-01) (39, -5.98075874149799346924e-02) (40, 7.92260095477104187012e-02) (41, -1.72352120280265808105e-01) (42, -1.43232837319374084473e-01) (43, -4.85800921916961669922e-01) (44, -4.32590663433074951172e-01) (45, -1.52583867311477661133e-01) (46, -4.01878282427787780762e-02) (47, 1.03601384907960891724e-02) (48, -1.36470389366149902344e+00) (0, 7.33934119343757629395e-02) (1, -4.60721142590045928955e-02) (2, -1.08537986874580383301e-01) (3, -1.40229672193527221680e-01) (4, -2.20897004008293151855e-01) (5, -4.89410944283008575439e-02) (6, -1.58619433641433715820e-01) (7, -6.54360502958297729492e-02) (8, 1.07539199292659759521e-01) (9, -1.94119453430175781250e-01) (10, -1.11577898263931274414e-01) (11, -1.86745151877403259277e-01) (12, -9.07612666487693786621e-02) (13, -2.57476925849914550781e-01) (14, -7.93729424476623535156e-02) (15, -9.11457762122154235840e-02) (16, -4.78275492787361145020e-02) (17, -1.60470157861709594727e-01) (18, -2.70856171846389770508e-01) (19, -3.03661823272705078125e-01) (20, -3.52364033460617065430e-01) (21, -1.40160828828811645508e-01) (22, -2.67931282520294189453e-01) (23, -1.32793530821800231934e-01) (24, 1.44935637712478637695e-01) (25, -1.52456954121589660645e-01) (26, 7.83912371844053268433e-03) (27, -1.72426253557205200195e-01) (28, -2.60824054479598999023e-01) (29, -2.37617209553718566895e-01) (30, -7.06708952784538269043e-02) (31, -3.10190528631210327148e-01) (32, -1.91125124692916870117e-01) (33, -2.11639925837516784668e-01) (34, -1.06151245534420013428e-01) (35, -3.12043726444244384766e-01) (36, -2.44962066411972045898e-01) (37, -2.67104715108871459961e-01) (38, -1.30808338522911071777e-01) (39, -1.82514381594955921173e-03) (40, -1.91317915916442871094e-01) (41, -8.11306536197662353516e-02) (42, -1.28488183021545410156e-01) (43, -2.80509740114212036133e-01) (44, -2.01428651809692382812e-01) (45, 3.29343713819980621338e-02) (46, -1.95947010070085525513e-02) (47, -8.55982974171638488770e-02) (48, -1.47746777534484863281e+00) (0, -1.03206805884838104248e-01) (1, -1.84605553746223449707e-01) (2, -3.09826135635375976562e-01) (3, -2.28321060538291931152e-01) (4, -4.70699727535247802734e-01) (5, -2.14333925396203994751e-03) (6, -7.51280188560485839844e-02) (7, 3.31753166392445564270e-03) (8, -1.26629680395126342773e-01) (9, -1.60947859287261962891e-01) (10, -9.10833030939102172852e-02) (11, -2.30296760797500610352e-01) (12, -4.00575935840606689453e-01) (13, -3.34075808525085449219e-01) (14, -3.88391166925430297852e-01) (15, 2.64182724058628082275e-02) (16, -4.94013726711273193359e-03) (17, -1.24882109463214874268e-01) (18, -2.17674478888511657715e-01) (19, -4.29009109735488891602e-01) (20, -5.84160029888153076172e-01) (21, -3.87307405471801757812e-01) (22, -3.44916790723800659180e-01) (23, -2.96275794506072998047e-01) (24, 2.30731025338172912598e-01) (25, -1.35800451040267944336e-01) (26, 3.32383811473846435547e-02) (27, -4.09229040145874023438e-01) (28, -4.97728884220123291016e-01) (29, -4.47716683149337768555e-01) (30, -4.47586476802825927734e-01) (31, -6.47907435894012451172e-01) (32, 6.15774362813681364059e-04) (33, -1.82413160800933837891e-01) (34, -2.14170534163713455200e-02) (35, -1.62669315934181213379e-01) (36, -6.40030145645141601562e-01) (37, -3.36974114179611206055e-01) (38, -4.26654577255249023438e-01) (39, -2.04651072621345520020e-01) (40, -3.65777462720870971680e-02) (41, -2.04671740531921386719e-01) (42, -7.06824883818626403809e-02) (43, -1.14746838808059692383e-01) (44, -5.03023207187652587891e-01) (45, -1.70824021100997924805e-01) (46, -1.61866232752799987793e-01) (47, -2.58030772209167480469e-01) (48, -1.38922917842864990234e+00) (0, -1.44307501614093780518e-02) (1, -1.31199687719345092773e-01) (2, 8.73383483849465847015e-04) (3, -1.88341923058032989502e-03) (4, -3.58194500207901000977e-01) (5, -1.38574421405792236328e-01) (6, -2.80708312988281250000e-01) (7, -1.60088136792182922363e-01) (8, 2.27114200592041015625e-01) (9, -4.86924871802330017090e-02) (10, -1.26318946480751037598e-01) (11, -1.35761007666587829590e-01) (12, 3.06324735283851623535e-02) (13, -1.45721659064292907715e-01) (14, -2.22582057118415832520e-01) (15, -2.36128062009811401367e-01) (16, 1.97304412722587585449e-01) (17, 2.10617735981941223145e-01) (18, -2.27127000689506530762e-01) (19, -2.54482984542846679688e-01) (20, -3.70813280344009399414e-01) (21, -7.33536779880523681641e-02) (22, -1.56062385067343711853e-02) (23, -9.77410748600959777832e-02) (24, 2.02095896005630493164e-01) (25, -1.83716788887977600098e-01) (26, 3.10286939144134521484e-01) (27, -1.88361361622810363770e-01) (28, -1.21891088783740997314e-01) (29, -3.26988697052001953125e-01) (30, 1.09427422285079956055e-01) (31, 7.58433416485786437988e-02) (32, -3.56678694486618041992e-01) (33, -7.63184055685997009277e-02) (34, -9.53482910990715026855e-02) (35, -7.40747600793838500977e-02) (36, -2.01486945152282714844e-01) (37, -5.97536973655223846436e-02) (38, -1.81432470679283142090e-01) (39, -1.11536368727684020996e-01) (40, -4.06286686658859252930e-01) (41, -1.22919887304306030273e-01) (42, -2.60441571474075317383e-01) (43, -1.56329363584518432617e-01) (44, -1.36094108223915100098e-01) (45, 5.64141140785068273544e-04) (46, 7.54061639308929443359e-02) (47, -8.04812014102935791016e-02) (48, -1.59962654113769531250e+00) (0, 2.40537151694297790527e-02) (1, -6.96071311831474304199e-02) (2, 6.34068772196769714355e-02) (3, -2.35147982835769653320e-01) (4, -6.31957128643989562988e-02) (5, -7.77839422225952148438e-02) (6, -9.87376123666763305664e-02) (7, -7.28346630930900573730e-02) (8, -1.47929668426513671875e-01) (9, 6.99016898870468139648e-02) (10, 2.58167572319507598877e-02) (11, -1.45216494798660278320e-01) (12, -1.58666446805000305176e-01) (13, -1.81265756487846374512e-01) (14, -1.71138375997543334961e-01) (15, -6.19094893336296081543e-02) (16, 1.36942565441131591797e-01) (17, 6.21875636279582977295e-02) (18, -4.04657283797860145569e-03) (19, -3.16525585949420928955e-02) (20, -8.93110036849975585938e-02) (21, -9.58908423781394958496e-02) (22, 1.04247547686100006104e-01) (23, 5.34368120133876800537e-02) (24, 7.40867899730801582336e-03) (25, -5.50750419497489929199e-02) (26, 1.14095799624919891357e-01) (27, -6.88637793064117431641e-02) (28, -1.29306271672248840332e-01) (29, -8.76373797655105590820e-02) (30, 6.34727329015731811523e-02) (31, 1.59503787755966186523e-01) (32, -1.05546087026596069336e-01) (33, 2.35593784600496292114e-02) (34, 8.83762240409851074219e-02) (35, 6.21480531990528106689e-02) (36, -1.33418798446655273438e-01) (37, -5.19910976290702819824e-02) (38, 5.97566366195678710938e-02) (39, -6.06120675802230834961e-02) (40, -5.70008344948291778564e-02) (41, -5.64886815845966339111e-02) (42, -9.70415920019149780273e-02) (43, 1.80562399327754974365e-02) (44, -9.61833074688911437988e-03) (45, 4.31717112660408020020e-02) (46, -1.23779430985450744629e-01) (47, -6.95088580250740051270e-02) (48, -1.65321469306945800781e+00) (0, 1.58146008849143981934e-01) (1, -2.35275030136108398438e-01) (2, -4.96165245771408081055e-01) (3, -6.76882743835449218750e-01) (4, -1.02484107017517089844e+00) (5, -5.95920741558074951172e-01) (6, -7.98271536827087402344e-01) (7, -6.97201490402221679688e-01) (8, 5.35834670066833496094e-01) (9, 4.11562114953994750977e-01) (10, 1.04987657070159912109e+00) (11, 5.94970464706420898438e-01) (12, -1.67897212505340576172e+00) (13, -1.44388771057128906250e+00) (14, -1.10721051692962646484e+00) (15, -1.18982446193695068359e+00) (16, 7.61302888393402099609e-01) (17, 2.85302817821502685547e-01) (18, 3.51859688758850097656e-01) (19, 5.48231899738311767578e-01) (20, 1.09716124832630157471e-01) (21, -2.89230287075042724609e-01) (22, -5.07785141468048095703e-01) (23, -1.12567591667175292969e+00) (24, 1.03973972797393798828e+00) (25, 6.11290037631988525391e-01) (26, 6.90245568752288818359e-01) (27, 6.49108290672302246094e-01) (28, 1.05491912364959716797e+00) (29, 4.76099215447902679443e-02) (30, -4.04512226581573486328e-01) (31, -3.71411710977554321289e-01) (32, -1.46181547641754150391e+00) (33, 3.16644966602325439453e-01) (34, 3.33304047584533691406e-01) (35, 4.06493663787841796875e-01) (36, 2.67868489027023315430e-01) (37, 3.79385620355606079102e-01) (38, 5.37010729312896728516e-01) (39, -7.65096664428710937500e-01) (40, -9.99165356159210205078e-01) (41, -5.21087229251861572266e-01) (42, 5.48072636127471923828e-01) (43, 4.30661469697952270508e-01) (44, 3.29031080007553100586e-01) (45, 1.21146142482757568359e+00) (46, 5.25992751121520996094e-01) (47, 6.89407587051391601562e-02) (48, -2.53930306434631347656e+00) (0, -1.00981377065181732178e-01) (1, -9.75536704063415527344e-02) (2, -1.94695040583610534668e-01) (3, -1.53234630823135375977e-01) (4, -2.26089060306549072266e-01) (5, -1.56471163034439086914e-01) (6, -1.05431854724884033203e-01) (7, -4.76483888924121856689e-02) (8, -7.10869254544377326965e-03) (9, -1.87433972954750061035e-01) (10, -2.36921578645706176758e-01) (11, -1.54866129159927368164e-01) (12, -1.62771657109260559082e-01) (13, -1.29243865609169006348e-01) (14, 9.16976258158683776855e-02) (15, -1.58423855900764465332e-01) (16, -1.15084178745746612549e-01) (17, -3.35196465253829956055e-01) (18, -1.41714110970497131348e-01) (19, -2.75477439165115356445e-01) (20, -1.30097404122352600098e-01) (21, -1.72971770167350769043e-01) (22, -2.19946846365928649902e-01) (23, -1.20023928582668304443e-01) (24, -1.02850735187530517578e-01) (25, -2.78661489486694335938e-01) (26, -2.64511674642562866211e-01) (27, -2.92390495538711547852e-01) (28, -3.19017291069030761719e-01) (29, -2.80437499284744262695e-01) (30, -6.10492266714572906494e-02) (31, -1.70851558446884155273e-01) (32, 2.08165589720010757446e-02) (33, -3.20045500993728637695e-01) (34, -1.83957800269126892090e-01) (35, -3.83470833301544189453e-01) (36, -3.09428870677947998047e-01) (37, -2.47959271073341369629e-01) (38, -2.66401499509811401367e-01) (39, -1.61367997527122497559e-01) (40, -9.58927497267723083496e-02) (41, -2.16054886579513549805e-01) (42, -4.49964627623558044434e-02) (43, -3.39263916015625000000e-01) (44, -3.17103266716003417969e-01) (45, -1.46270453929901123047e-01) (46, -2.31143068522214889526e-02) (47, -8.22247490286827087402e-02) (48, -1.40865242481231689453e+00) (0, 4.54807840287685394287e-02) (1, 3.71987372636795043945e-02) (2, 4.59351576864719390869e-02) (3, -5.49360476434230804443e-02) (4, -2.05568656325340270996e-01) (5, -9.74914282560348510742e-02) (6, -1.92471534013748168945e-01) (7, -1.89055517315864562988e-01) (8, 9.80873927474021911621e-02) (9, 7.86644220352172851562e-02) (10, -2.05835774540901184082e-02) (11, -1.92591235041618347168e-01) (12, -7.23237469792366027832e-02) (13, -9.97953936457633972168e-02) (14, -1.58061971887946128845e-03) (15, -1.81362390518188476562e-01) (16, 1.71514749526977539062e-01) (17, 3.24810743331909179688e-02) (18, -7.74286091327667236328e-02) (19, -2.17156093567609786987e-02) (20, -1.78512021899223327637e-01) (21, -1.08341850340366363525e-01) (22, 4.44481447339057922363e-02) (23, 1.56400084495544433594e-01) (24, 3.21552082896232604980e-02) (25, 7.13770166039466857910e-02) (26, 4.59703281521797180176e-02) (27, 7.76984402909874916077e-03) (28, -4.44585345685482025146e-02) (29, -1.55618311837315559387e-02) (30, 1.24407894909381866455e-01) (31, 7.97246545553207397461e-02) (32, -1.67746290564537048340e-01) (33, 3.48964408040046691895e-02) (34, 1.26849129796028137207e-01) (35, -9.77695956826210021973e-02) (36, -1.66498154401779174805e-01) (37, -8.13491716980934143066e-02) (38, 7.35605284571647644043e-02) (39, -7.47048621997237205505e-03) (40, -1.53759732842445373535e-01) (41, -1.39940887689590454102e-01) (42, -1.19044452905654907227e-01) (43, -3.96743416786193847656e-02) (44, -1.47324845194816589355e-01) (45, 2.50530131161212921143e-02) (46, -4.93787452578544616699e-02) (47, 6.65102005004882812500e-02) (48, -1.65655696392059326172e+00) (0, 1.67413800954818725586e-01) (1, -1.03514350950717926025e-01) (2, -1.03988640010356903076e-01) (3, 9.28403735160827636719e-02) (4, -1.87889575958251953125e-01) (5, -1.78143873810768127441e-01) (6, -2.27648362517356872559e-01) (7, -1.18766754865646362305e-01) (8, 7.52012878656387329102e-02) (9, -5.57488977909088134766e-01) (10, -2.39493668079376220703e-01) (11, -3.63421112298965454102e-01) (12, 1.65822446346282958984e-01) (13, 8.81533622741699218750e-02) (14, 2.12112873792648315430e-01) (15, -2.58101284503936767578e-01) (16, -3.35073739290237426758e-01) (17, -7.44538068771362304688e-01) (18, -2.65072941780090332031e-01) (19, -3.91102999448776245117e-01) (20, -3.52853000164031982422e-01) (21, -2.11410105228424072266e-01) (22, -2.52232968807220458984e-01) (23, 3.16280201077461242676e-02) (24, -6.33866369724273681641e-01) (25, -5.88125944137573242188e-01) (26, -4.09281611442565917969e-01) (27, -6.08337402343750000000e-01) (28, -3.67775261402130126953e-01) (29, -5.37617921829223632812e-01) (30, -1.87322929501533508301e-01) (31, -3.59874695539474487305e-01) (32, -3.96111100912094116211e-01) (33, -9.70123469829559326172e-01) (34, -6.54738843441009521484e-01) (35, -8.30282926559448242188e-01) (36, -6.27279996871948242188e-01) (37, -3.80993545055389404297e-01) (38, -5.59679806232452392578e-01) (39, -2.61745005846023559570e-02) (40, -6.07128888368606567383e-02) (41, -3.79510909318923950195e-01) (42, -2.82187640666961669922e-01) (43, -9.50249075889587402344e-01) (44, -5.57667255401611328125e-01) (45, -4.26597863435745239258e-01) (46, -2.96096861362457275391e-01) (47, -2.93868109583854675293e-02) (48, -9.35218572616577148438e-01) (0, -1.35030046105384826660e-01) (1, -2.41683229804039001465e-01) (2, -1.50897443294525146484e-01) (3, -1.82938218116760253906e-01) (4, -3.76723617315292358398e-01) (5, -2.07794323563575744629e-01) (6, 1.78291578777134418488e-03) (7, -2.78981830924749374390e-02) (8, -4.90976683795452117920e-02) (9, -4.43384647369384765625e-01) (10, -1.08557298779487609863e-01) (11, -2.53782480955123901367e-01) (12, -3.55054557323455810547e-01) (13, -1.06170617043972015381e-01) (14, -2.95929741114377975464e-02) (15, 1.12232334911823272705e-01) (16, -3.01109105348587036133e-01) (17, -3.96581590175628662109e-01) (18, -2.66273498535156250000e-01) (19, -4.11269038915634155273e-01) (20, -2.22213894128799438477e-01) (21, -4.65051174163818359375e-01) (22, -2.30868041515350341797e-01) (23, -3.23582589626312255859e-01) (24, -3.85132044553756713867e-01) (25, -2.53326088190078735352e-01) (26, -4.72150385379791259766e-01) (27, -4.39492583274841308594e-01) (28, -4.38362032175064086914e-01) (29, -3.16804766654968261719e-01) (30, -3.68139386177062988281e-01) (31, -3.80826771259307861328e-01) (32, 7.00051262974739074707e-02) (33, -4.44594502449035644531e-01) (34, -5.80263674259185791016e-01) (35, -6.52290523052215576172e-01) (36, -3.96640092134475708008e-01) (37, -2.96913594007492065430e-01) (38, -2.39426106214523315430e-01) (39, -1.95791684091091156006e-02) (40, 2.30648428201675415039e-01) (41, -1.90799430012702941895e-01) (42, -8.43015462160110473633e-02) (43, -8.20667803287506103516e-01) (44, -5.61118960380554199219e-01) (45, -3.31355690956115722656e-01) (46, -1.21547408401966094971e-01) (47, -2.66651902347803115845e-02) (48, -9.92565870285034179688e-01) (0, -1.18734203279018402100e-01) (1, -1.97002753615379333496e-01) (2, -4.43484671413898468018e-02) (3, -9.59997624158859252930e-02) (4, -2.39239245653152465820e-01) (5, -1.50438323616981506348e-01) (6, -4.06282916665077209473e-02) (7, 2.76903901249170303345e-02) (8, -1.00287068635225296021e-02) (9, -2.57098376750946044922e-01) (10, -8.26530158519744873047e-03) (11, -4.01940047740936279297e-02) (12, -4.22692626714706420898e-01) (13, -2.04098373651504516602e-01) (14, -1.05759561061859130859e-01) (15, 1.33389934897422790527e-01) (16, -2.33177110552787780762e-01) (17, -1.78667664527893066406e-01) (18, -1.43423154950141906738e-01) (19, -1.45250514149665832520e-01) (20, -1.69819265604019165039e-01) (21, -3.28248828649520874023e-01) (22, -5.70412166416645050049e-02) (23, -2.95339941978454589844e-01) (24, -1.70769453048706054688e-01) (25, -9.78755056858062744141e-02) (26, -2.22796529531478881836e-01) (27, -2.44553163647651672363e-01) (28, -3.16996455192565917969e-01) (29, -2.55255073308944702148e-01) (30, -3.20705831050872802734e-01) (31, -2.74704843759536743164e-01) (32, 8.38843211531639099121e-02) (33, -2.17991948127746582031e-01) (34, -3.33491206169128417969e-01) (35, -4.31554168462753295898e-01) (36, -2.90825992822647094727e-01) (37, -3.87754887342453002930e-01) (38, -8.34697782993316650391e-02) (39, -8.13847556710243225098e-02) (40, 3.52834649384021759033e-02) (41, -6.42459765076637268066e-02) (42, -1.87158230692148208618e-02) (43, -6.11159384250640869141e-01) (44, -3.56013059616088867188e-01) (45, -3.26502352952957153320e-01) (46, -5.37757091224193572998e-02) (47, -2.60732889175415039062e-01) (48, -1.38586926460266113281e+00) (0, -1.73155918717384338379e-01) (1, -1.69749587774276733398e-01) (2, -3.04265618324279785156e-02) (3, -9.33700278401374816895e-02) (4, 2.95700550079345703125e-01) (5, 6.04049749672412872314e-02) (6, -2.83979266881942749023e-01) (7, -4.25892136991024017334e-02) (8, -5.31568765640258789062e-01) (9, 1.69881999492645263672e-01) (10, 1.66893690824508666992e-01) (11, 1.51791185140609741211e-01) (12, -1.96621790528297424316e-01) (13, -1.92373350262641906738e-01) (14, -2.79635608196258544922e-01) (15, -1.82083293795585632324e-01) (16, 5.82523643970489501953e-02) (17, 2.33397975564002990723e-01) (18, 1.37522593140602111816e-01) (19, 3.47348153591156005859e-01) (20, 1.23212032020092010498e-01) (21, 3.89844954013824462891e-01) (22, 4.42192494869232177734e-01) (23, 3.39358389377593994141e-01) (24, 9.88366603851318359375e-02) (25, -2.49011293053627014160e-02) (26, 2.74973422288894653320e-01) (27, 7.11757764220237731934e-02) (28, -1.11539280624128878117e-04) (29, 3.18626850843429565430e-01) (30, 2.54214346408843994141e-01) (31, 5.28946757316589355469e-01) (32, 4.57366891205310821533e-02) (33, 3.75945538282394409180e-01) (34, 5.15500426292419433594e-01) (35, 4.04188811779022216797e-01) (36, 4.71228314563632011414e-03) (37, 2.97612577676773071289e-01) (38, 2.61737197637557983398e-01) (39, -2.53088116645812988281e-01) (40, -1.99060700833797454834e-02) (41, 3.36246907711029052734e-01) (42, 7.53799676895141601562e-02) (43, 4.69328016042709350586e-01) (44, 6.01766593754291534424e-02) (45, -2.02016592025756835938e-01) (46, -2.21813589334487915039e-01) (47, -4.35793131589889526367e-01) (48, -1.64402651786804199219e+00) (0, -2.12532043457031250000e-01) (1, -1.14655546844005584717e-01) (2, -1.94929540157318115234e-01) (3, -2.62786388397216796875e-01) (4, -3.06612253189086914062e-01) (5, -1.61386981606483459473e-01) (6, -4.04825480654835700989e-03) (7, 1.96171686053276062012e-01) (8, -3.03324639797210693359e-01) (9, -3.10630857944488525391e-01) (10, -1.86324529349803924561e-02) (11, -1.87619417905807495117e-01) (12, -4.63714331388473510742e-01) (13, 9.59759280085563659668e-02) (14, 9.07705575227737426758e-02) (15, 4.73063215613365173340e-02) (16, -3.00759494304656982422e-01) (17, -2.93565988540649414062e-01) (18, -3.32267768681049346924e-03) (19, -1.01746007800102233887e-01) (20, 1.38196619227528572083e-02) (21, 1.54364064335823059082e-01) (22, 4.59255324676632881165e-03) (23, -4.08893749117851257324e-02) (24, -2.71085947751998901367e-01) (25, -4.23706928268074989319e-03) (26, -2.47327849268913269043e-01) (27, -1.49391099810600280762e-01) (28, 1.77052877843379974365e-02) (29, 9.18144658207893371582e-02) (30, -8.48221313208341598511e-03) (31, 1.52930334210395812988e-01) (32, 1.10137425363063812256e-01) (33, -1.50227919220924377441e-01) (34, -1.58774554729461669922e-01) (35, 1.75115123391151428223e-01) (36, -5.37764579057693481445e-02) (37, 3.71027514338493347168e-02) (38, 2.03106313943862915039e-01) (39, -1.38229116797447204590e-01) (40, 2.83863935619592666626e-02) (41, -5.19119240343570709229e-02) (42, 2.76070415973663330078e-01) (43, -6.57445415854454040527e-02) (44, -1.21865898370742797852e-01) (45, -1.13532967865467071533e-01) (46, -1.24790824949741363525e-01) (47, -2.25255131721496582031e-01) (48, -1.73786067962646484375e+00) (0, -9.01291593909263610840e-02) (1, -1.44327864050865173340e-01) (2, -1.03822909295558929443e-01) (3, -1.33566722273826599121e-01) (4, 6.85527771711349487305e-02) (5, -8.37684515863656997681e-03) (6, -2.13146105408668518066e-01) (7, -7.56121426820755004883e-02) (8, -2.93490558862686157227e-01) (9, 5.97354993224143981934e-02) (10, 6.60867467522621154785e-02) (11, -3.36014851927757263184e-02) (12, -9.41632241010665893555e-02) (13, -3.28291654586791992188e-01) (14, -1.26785635948181152344e-01) (15, -5.93906454741954803467e-02) (16, -6.01301454007625579834e-02) (17, 1.91385433077812194824e-01) (18, 4.65979464352130889893e-02) (19, 7.68214376876130700111e-05) (20, 3.27117480337619781494e-02) (21, 1.28909856081008911133e-01) (22, 1.13975249230861663818e-01) (23, 1.90771907567977905273e-01) (24, 1.65550429373979568481e-02) (25, 1.11543767154216766357e-01) (26, 1.14167638123035430908e-01) (27, 1.42678013071417808533e-02) (28, -1.04420140385627746582e-01) (29, 1.04278266429901123047e-01) (30, 1.54538810253143310547e-01) (31, 2.16817095875740051270e-01) (32, -1.09375350177288055420e-01) (33, 2.58275210857391357422e-01) (34, 2.84315258264541625977e-01) (35, 1.16816110908985137939e-01) (36, -8.24496597051620483398e-02) (37, -5.38959465920925140381e-02) (38, 1.99665397405624389648e-01) (39, -1.58980250358581542969e-01) (40, -1.04393223300576210022e-02) (41, 8.21230709552764892578e-02) (42, -5.27014099061489105225e-02) (43, 1.71251296997070312500e-01) (44, -6.97393855080008506775e-03) (45, -5.36906905472278594971e-02) (46, -2.45755761861801147461e-01) (47, -2.54093557596206665039e-01) (48, -1.64342260360717773438e+00) (0, -5.29555156826972961426e-02) (1, -9.40077081322669982910e-02) (2, -9.07329320907592773438e-02) (3, -1.62810906767845153809e-01) (4, -1.48849606513977050781e-01) (5, -1.16072066128253936768e-01) (6, -5.41136823594570159912e-02) (7, -5.95272630453109741211e-02) (8, 3.73179093003273010254e-03) (9, -5.10485842823982238770e-02) (10, -1.60847678780555725098e-01) (11, -5.46851605176925659180e-02) (12, -2.59764879941940307617e-01) (13, -2.24403440952301025391e-01) (14, -8.73526036739349365234e-02) (15, -1.22499063611030578613e-01) (16, -1.20586040429770946503e-03) (17, -4.29059788584709167480e-02) (18, -1.64057120680809020996e-01) (19, -1.81348636746406555176e-01) (20, -2.62163609266281127930e-01) (21, -1.47703781723976135254e-01) (22, -1.58136039972305297852e-01) (23, -1.38669729232788085938e-01) (24, 3.95022742450237274170e-02) (25, -5.79865127801895141602e-02) (26, -3.74926142394542694092e-02) (27, -7.16013610363006591797e-02) (28, -2.29633092880249023438e-01) (29, -2.42485165596008300781e-01) (30, -1.73607498407363891602e-01) (31, -1.77926734089851379395e-01) (32, -3.21451984345912933350e-02) (33, -2.79799960553646087646e-02) (34, 1.57504212111234664917e-02) (35, -1.92739978432655334473e-01) (36, -2.07745701074600219727e-01) (37, -7.55985081195831298828e-02) (38, -2.04952150583267211914e-01) (39, -6.20249919593334197998e-02) (40, -1.17418318986892700195e-01) (41, -1.26370027661323547363e-01) (42, -8.51579904556274414062e-02) (43, -1.31740421056747436523e-01) (44, -1.58963873982429504395e-01) (45, -7.50220865011215209961e-02) (46, -3.75558137893676757812e-02) (47, -1.29190534353256225586e-01) (48, -1.55962300300598144531e+00) (0, -1.13745801150798797607e-01) (1, -1.22761942446231842041e-01) (2, -2.98507601022720336914e-01) (3, -8.52666422724723815918e-02) (4, -3.69444906711578369141e-01) (5, -3.41663539409637451172e-01) (6, -1.50669932365417480469e-01) (7, 3.63026442937552928925e-03) (8, -8.34815949201583862305e-02) (9, -5.35694420337677001953e-01) (10, -2.24207282066345214844e-01) (11, -2.43400499224662780762e-01) (12, -5.26817798614501953125e-01) (13, -1.81841179728507995605e-01) (14, 1.59233286976814270020e-01) (15, 7.11691007018089294434e-02) (16, -4.57885712385177612305e-01) (17, -5.86928725242614746094e-01) (18, -1.68583169579505920410e-01) (19, -2.89072096347808837891e-01) (20, -2.69214600324630737305e-01) (21, -3.10161173343658447266e-01) (22, -2.27341428399085998535e-01) (23, -2.34880894422531127930e-01) (24, -5.25576770305633544922e-01) (25, -5.27530074119567871094e-01) (26, -5.10473012924194335938e-01) (27, -4.22966450452804565430e-01) (28, -3.16144406795501708984e-01) (29, -2.74607300758361816406e-01) (30, -4.10072803497314453125e-01) (31, -1.54378548264503479004e-01) (32, -6.69301003217697143555e-02) (33, -6.44668519496917724609e-01) (34, -4.73369210958480834961e-01) (35, -6.48360133171081542969e-01) (36, -3.07684540748596191406e-01) (37, -3.66721957921981811523e-01) (38, -2.35639289021492004395e-01) (39, -4.68811839818954467773e-02) (40, 5.13566769659519195557e-02) (41, -3.74378442764282226562e-01) (42, 1.33928462862968444824e-01) (43, -9.58196878433227539062e-01) (44, -5.00640928745269775391e-01) (45, -1.88927248120307922363e-01) (46, -1.13468319177627563477e-01) (47, 2.10939301177859306335e-03) (48, -1.08971548080444335938e+00) (0, -1.05857267975807189941e-01) (1, -1.07802323997020721436e-01) (2, 1.06342993676662445068e-01) (3, -3.07450573891401290894e-02) (4, -1.34869232773780822754e-01) (5, -1.40831515192985534668e-01) (6, -1.18942543864250183105e-01) (7, 1.02285504341125488281e-01) (8, -1.93453341722488403320e-01) (9, -1.92714720964431762695e-01) (10, 1.55727803707122802734e-01) (11, -8.72296765446662902832e-02) (12, -3.57853472232818603516e-01) (13, -1.18663474917411804199e-01) (14, -2.82820194959640502930e-01) (15, 1.75918504595756530762e-01) (16, -2.52490401268005371094e-01) (17, 4.01602610945701599121e-02) (18, -6.57403003424406051636e-03) (19, -1.65706261992454528809e-01) (20, -7.52313062548637390137e-02) (21, -2.72910028696060180664e-01) (22, -1.18446715176105499268e-01) (23, -3.69239747524261474609e-01) (24, -1.20852887630462646484e-01) (25, -1.78538952022790908813e-02) (26, -2.99540013074874877930e-01) (27, -1.51435822248458862305e-01) (28, -4.51431185007095336914e-01) (29, -2.47423276305198669434e-01) (30, -3.53347688913345336914e-01) (31, -2.76867508888244628906e-01) (32, 1.71097487211227416992e-01) (33, -2.00295314192771911621e-01) (34, -2.77858465909957885742e-01) (35, -3.28943967819213867188e-01) (36, -3.07074755430221557617e-01) (37, -3.30356627702713012695e-01) (38, -1.50337200611829757690e-02) (39, -1.98902890086174011230e-01) (40, 9.92794185876846313477e-02) (41, -1.25368028879165649414e-01) (42, -8.21963772177696228027e-02) (43, -5.25941252708435058594e-01) (44, -3.82755458354949951172e-01) (45, -3.36293220520019531250e-01) (46, -1.51485905051231384277e-01) (47, -2.99410343170166015625e-01) (48, -1.47859072685241699219e+00) (0, 7.15131983160972595215e-02) (1, -1.05826884508132934570e-01) (2, -2.00372517108917236328e-01) (3, -2.10989248007535934448e-02) (4, -1.54215112328529357910e-01) (5, -1.37143552303314208984e-01) (6, -2.15400099754333496094e-01) (7, -1.08703956007957458496e-01) (8, 8.07959362864494323730e-02) (9, -9.41806212067604064941e-02) (10, -1.27048358321189880371e-01) (11, -1.04111097753047943115e-01) (12, -1.47987112402915954590e-01) (13, -2.01380141079425811768e-02) (14, 5.11143319308757781982e-02) (15, -1.31835281848907470703e-01) (16, -1.25707030296325683594e-01) (17, -1.91184550523757934570e-01) (18, -2.24363416433334350586e-01) (19, -2.74627059698104858398e-01) (20, -3.17781537771224975586e-01) (21, -2.35217601060867309570e-01) (22, -1.28966525197029113770e-01) (23, -1.16145595908164978027e-01) (24, -4.57879193127155303955e-02) (25, -2.37593725323677062988e-01) (26, -1.80681303143501281738e-01) (27, -3.13534975051879882812e-01) (28, -1.83948367834091186523e-01) (29, -2.12380975484848022461e-01) (30, -1.50829732418060302734e-01) (31, -2.17382431030273437500e-01) (32, -2.58528906852006912231e-02) (33, -2.73525923490524291992e-01) (34, -2.25655466318130493164e-01) (35, -2.75269180536270141602e-01) (36, -3.28800737857818603516e-01) (37, -1.92408740520477294922e-01) (38, -1.68724849820137023926e-01) (39, -1.28925621509552001953e-01) (40, -1.36847019195556640625e-01) (41, -2.15687632560729980469e-01) (42, -2.02636733651161193848e-01) (43, -3.06312918663024902344e-01) (44, -3.52760225534439086914e-01) (45, -2.46194452047348022461e-01) (46, -1.81687504053115844727e-01) (47, -1.06037110090255737305e-02) (48, -1.44492173194885253906e+00) (0, -9.16817924007773399353e-04) (1, -9.95702482759952545166e-03) (2, 2.99442000687122344971e-02) (3, 2.48843594454228878021e-03) (4, -2.04822406172752380371e-01) (5, -1.05640172958374023438e-01) (6, -1.64362907409667968750e-01) (7, -9.76366102695465087891e-02) (8, 8.66653695702552795410e-02) (9, -1.03319279849529266357e-01) (10, -1.65536046028137207031e-01) (11, -2.09902599453926086426e-01) (12, 4.62312763556838035583e-03) (13, -6.23572319746017456055e-02) (14, -6.06059208512306213379e-02) (15, -2.13615238666534423828e-01) (16, -1.08790606260299682617e-01) (17, -2.34545066952705383301e-01) (18, -7.11137130856513977051e-02) (19, -2.00921982526779174805e-01) (20, -2.30278015136718750000e-01) (21, -7.40216672420501708984e-02) (22, -3.31973209977149963379e-02) (23, -9.53224673867225646973e-02) (24, -1.39072686433792114258e-01) (25, -1.27662971615791320801e-01) (26, -1.85538262128829956055e-01) (27, -2.45481535792350769043e-01) (28, -1.67712256312370300293e-01) (29, -1.64670705795288085938e-01) (30, 7.30087161064147949219e-02) (31, -1.26401439309120178223e-01) (32, -1.72825559973716735840e-01) (33, -1.55444115400314331055e-01) (34, -5.64071238040924072266e-02) (35, -2.34346300363540649414e-01) (36, -2.17758730053901672363e-01) (37, -1.50130853056907653809e-01) (38, -1.40860393643379211426e-01) (39, 2.87518966943025588989e-02) (40, -3.22454720735549926758e-02) (41, -1.73249453306198120117e-01) (42, -2.24889606237411499023e-01) (43, -1.83940961956977844238e-01) (44, -3.18120121955871582031e-01) (45, -1.71839803457260131836e-01) (46, -1.39755547046661376953e-01) (47, -2.61281095445156097412e-02) (48, -1.56716728210449218750e+00) (0, 6.94312229752540588379e-02) (1, 1.44873559474945068359e-01) (2, 6.07510842382907867432e-02) (3, -7.19341784715652465820e-02) (4, 1.08137175440788269043e-01) (5, -5.51025271415710449219e-02) (6, -1.14893741905689239502e-01) (7, -1.34774699807167053223e-01) (8, -1.21684618294239044189e-01) (9, 3.27546387910842895508e-01) (10, 3.18191438913345336914e-01) (11, 4.09066081047058105469e-02) (12, -2.45089083909988403320e-01) (13, -2.44657486677169799805e-01) (14, -1.62103429436683654785e-01) (15, -3.88700276613235473633e-01) (16, 5.20091176033020019531e-01) (17, 5.14764904975891113281e-01) (18, 1.63996592164039611816e-01) (19, 2.03200772404670715332e-01) (20, -1.34934172034263610840e-01) (21, 5.55866546928882598877e-02) (22, 2.24861428141593933105e-01) (23, 6.46041274070739746094e-01) (24, 3.96021544933319091797e-01) (25, 4.41460371017456054688e-01) (26, 5.28484523296356201172e-01) (27, 8.36807414889335632324e-02) (28, 3.04284039884805679321e-02) (29, 2.94121861457824707031e-01) (30, 7.99380183219909667969e-01) (31, 8.66747498512268066406e-01) (32, -1.47248774766921997070e-01) (33, 5.40066123008728027344e-01) (34, 7.17920482158660888672e-01) (35, 3.41799914836883544922e-01) (36, -1.13473094999790191650e-01) (37, 4.62571650743484497070e-01) (38, 4.35021758079528808594e-01) (39, 2.43353709578514099121e-01) (40, -2.05282449722290039062e-01) (41, 2.23956316709518432617e-01) (42, -6.68320879340171813965e-02) (43, 6.74509942531585693359e-01) (44, 3.03551942110061645508e-01) (45, 4.36404943466186523438e-01) (46, 6.64912834763526916504e-02) (47, 5.64845092594623565674e-02) (48, -1.54421126842498779297e+00) (0, 4.71395440399646759033e-02) (1, -2.91384700685739517212e-02) (2, -1.84792205691337585449e-01) (3, -1.55290722846984863281e-01) (4, -5.33744096755981445312e-01) (5, -1.85731396079063415527e-01) (6, -1.73269599676132202148e-01) (7, -6.99844956398010253906e-02) (8, 2.14113488793373107910e-01) (9, -3.49016875028610229492e-01) (10, -2.89681762456893920898e-01) (11, -3.48940283060073852539e-01) (12, -3.89410793781280517578e-01) (13, -2.04302132129669189453e-01) (14, -7.11584836244583129883e-02) (15, 5.15622496604919433594e-02) (16, -1.95864602923393249512e-01) (17, -3.32309126853942871094e-01) (18, -3.13667267560958862305e-01) (19, -3.52407783269882202148e-01) (20, -4.96956914663314819336e-01) (21, -4.95405316352844238281e-01) (22, -3.35787147283554077148e-01) (23, -6.30324423313140869141e-01) (24, -3.14769148826599121094e-02) (25, -3.61686944961547851562e-01) (26, -3.37623685598373413086e-01) (27, -4.99785453081130981445e-01) (28, -5.00420928001403808594e-01) (29, -4.56563591957092285156e-01) (30, -6.83707594871520996094e-01) (31, -7.85345196723937988281e-01) (32, 1.69433262199163436890e-02) (33, -4.80339258909225463867e-01) (34, -5.28236508369445800781e-01) (35, -7.84207999706268310547e-01) (36, -6.15895032882690429688e-01) (37, -5.52934587001800537109e-01) (38, -5.89343607425689697266e-01) (39, 5.21870777010917663574e-02) (40, -7.39411190152168273926e-02) (41, -2.90580868721008300781e-01) (42, -2.46122911572456359863e-01) (43, -9.49366450309753417969e-01) (44, -7.57895171642303466797e-01) (45, -3.79243403673171997070e-01) (46, 4.04447428882122039795e-02) (47, -5.56725673377513885498e-02) (48, -7.08724677562713623047e-01) (0, -2.43050605058670043945e-01) (1, -9.03417244553565979004e-02) (2, -2.56569713354110717773e-01) (3, -1.99546635150909423828e-01) (4, -3.73456776142120361328e-01) (5, -8.50966572761535644531e-03) (6, -1.63943693041801452637e-01) (7, -3.35137322545051574707e-02) (8, -6.09471872448921203613e-02) (9, -1.71562433242797851562e-01) (10, -2.75711089372634887695e-01) (11, -2.65703827142715454102e-01) (12, -3.05740982294082641602e-01) (13, -2.53095209598541259766e-01) (14, -2.64992535114288330078e-01) (15, -1.69853251427412033081e-02) (16, -1.00040314719080924988e-02) (17, -3.79383862018585205078e-02) (18, -2.61818975210189819336e-01) (19, -3.97670686244964599609e-01) (20, -3.53059411048889160156e-01) (21, -1.87379851937294006348e-01) (22, -2.85742402076721191406e-01) (23, -3.49043160676956176758e-01) (24, 2.36367791891098022461e-01) (25, -1.64433225989341735840e-01) (26, -2.17037443071603775024e-02) (27, -3.81343990564346313477e-01) (28, -4.40487504005432128906e-01) (29, -2.54586845636367797852e-01) (30, -1.95066764950752258301e-01) (31, -4.60589945316314697266e-01) (32, 3.14595662057399749756e-02) (33, -1.99186697602272033691e-01) (34, -7.29068741202354431152e-02) (35, -2.81776428222656250000e-01) (36, -5.64235925674438476562e-01) (37, -3.85137170553207397461e-01) (38, -4.22789871692657470703e-01) (39, -8.97162482142448425293e-02) (40, -6.51387870311737060547e-02) (41, -2.18195602297782897949e-01) (42, -1.52471318840980529785e-01) (43, -2.23373726010322570801e-01) (44, -4.59959983825683593750e-01) (45, -1.40222534537315368652e-01) (46, -9.87947359681129455566e-03) (47, -1.85654833912849426270e-01) (48, -1.44238877296447753906e+00) (0, 3.04911527782678604126e-02) (1, 8.54391083121299743652e-02) (2, 1.12833373248577117920e-01) (3, -9.93791893124580383301e-02) (4, -1.05026632547378540039e-01) (5, -2.68868665443733334541e-04) (6, -2.92537380009889602661e-02) (7, 2.51066237688064575195e-02) (8, -4.33471687138080596924e-02) (9, 1.97884604334831237793e-01) (10, 2.60789036750793457031e-01) (11, 3.66480052471160888672e-02) (12, -3.34449470043182373047e-01) (13, -1.10008589923381805420e-01) (14, -2.02511459589004516602e-01) (15, -4.06321108341217041016e-01) (16, 4.74338233470916748047e-01) (17, 4.29003864526748657227e-01) (18, 1.86357006430625915527e-01) (19, 1.08834125101566314697e-01) (20, -1.06041945517063140869e-01) (21, -7.83143118023872375488e-02) (22, 9.88036394119262695312e-02) (23, 5.92683911323547363281e-01) (24, 3.64509820938110351562e-01) (25, 4.20812845230102539062e-01) (26, 4.08573687076568603516e-01) (27, 1.85847833752632141113e-01) (28, -5.99992461502552032471e-02) (29, 3.19193154573440551758e-01) (30, 4.36594456434249877930e-01) (31, 7.61629402637481689453e-01) (32, 6.85930177569389343262e-02) (33, 5.34802675247192382812e-01) (34, 7.06147372722625732422e-01) (35, 3.43400627374649047852e-01) (36, -5.66236227750778198242e-02) (37, 3.22843313217163085938e-01) (38, 3.53934228420257568359e-01) (39, 2.13737875223159790039e-01) (40, -1.00314423441886901855e-01) (41, 2.66049593687057495117e-01) (42, 9.55738946795463562012e-02) (43, 5.60873985290527343750e-01) (44, 2.65559792518615722656e-01) (45, 2.43392750620841979980e-01) (46, 5.97878657281398773193e-02) (47, 1.00901305675506591797e-01) (48, -1.67145848274230957031e+00) (0, -1.35246872901916503906e-01) (1, -2.11852610111236572266e-01) (2, -3.84492650628089904785e-02) (3, -1.64855256676673889160e-01) (4, -1.40729576349258422852e-01) (5, -8.13786871731281280518e-03) (6, 9.40463691949844360352e-03) (7, 9.95543971657752990723e-02) (8, -5.06388992071151733398e-02) (9, -1.38402760028839111328e-01) (10, 5.94431385397911071777e-02) (11, -1.04858040809631347656e-01) (12, -2.62956053018569946289e-01) (13, -1.03189321234822273254e-02) (14, 6.78165405988693237305e-02) (15, -3.07483114302158355713e-02) (16, -1.49956837296485900879e-01) (17, -2.06307142972946166992e-01) (18, -5.57097755372524261475e-02) (19, -9.66452136635780334473e-02) (20, -1.16872161626815795898e-01) (21, -2.09485992789268493652e-01) (22, -1.14384710788726806641e-01) (23, -6.25722706317901611328e-02) (24, -2.26688981056213378906e-01) (25, -2.80776899307966232300e-02) (26, -1.13144151866436004639e-01) (27, -1.35738000273704528809e-01) (28, -2.32080876827239990234e-01) (29, 8.14611837267875671387e-02) (30, 7.29575902223587036133e-02) (31, 4.07151915132999420166e-02) (32, -8.01018327474594116211e-02) (33, -8.34112912416458129883e-02) (34, 1.04408465325832366943e-01) (35, -4.72317496314644813538e-03) (36, -1.61949649453163146973e-01) (37, 6.47928938269615173340e-02) (38, 5.33833578228950500488e-02) (39, -9.24828648567199707031e-02) (40, 2.17576995491981506348e-02) (41, -8.74267239123582839966e-03) (42, 8.77153277397155761719e-02) (43, -1.74742087721824645996e-01) (44, -2.15510800480842590332e-01) (45, -6.19707889854907989502e-02) (46, -2.45026752352714538574e-01) (47, -2.56569292396306991577e-02) (48, -1.60184502601623535156e+00) (0, -1.36288419365882873535e-01) (1, -4.41529490053653717041e-02) (2, 9.94516313076019287109e-02) (3, 7.76154324412345886230e-02) (4, -6.12819671630859375000e-01) (5, -2.69981950521469116211e-01) (6, -3.21093559265136718750e-01) (7, -8.97650793194770812988e-02) (8, 2.99593508243560791016e-01) (9, -9.08305794000625610352e-02) (10, -1.18139967322349548340e-01) (11, -3.02624285221099853516e-01) (12, -4.07350689172744750977e-01) (13, -1.58263549208641052246e-01) (14, -1.54474377632141113281e-01) (15, 2.98174232244491577148e-01) (16, -2.26763933897018432617e-01) (17, -1.54021158814430236816e-01) (18, -3.23795557022094726562e-01) (19, -3.27361851930618286133e-01) (20, -7.08359301090240478516e-01) (21, -8.00144553184509277344e-01) (22, -4.60069239139556884766e-01) (23, -8.28418433666229248047e-01) (24, 1.98242455720901489258e-01) (25, -3.15594673156738281250e-01) (26, -3.64854425191879272461e-01) (27, -6.29320323467254638672e-01) (28, -6.17412090301513671875e-01) (29, -7.09947288036346435547e-01) (30, -9.54725921154022216797e-01) (31, -8.43649983406066894531e-01) (32, 7.87420123815536499023e-02) (33, -5.36754548549652099609e-01) (34, -5.85834622383117675781e-01) (35, -1.06433415412902832031e+00) (36, -8.32569122314453125000e-01) (37, -6.21702432632446289062e-01) (38, -5.00347971916198730469e-01) (39, 1.61767184734344482422e-01) (40, -8.26542675495147705078e-02) (41, -4.86458122730255126953e-01) (42, -5.27245461940765380859e-01) (43, -1.20563077926635742188e+00) (44, -9.60062026977539062500e-01) (45, -5.49001634120941162109e-01) (46, 1.21602706611156463623e-01) (47, 5.10124489665031433105e-02) (48, -4.64458286762237548828e-01) (0, -1.63576468825340270996e-01) (1, -1.26389771699905395508e-01) (2, -5.24026565253734588623e-02) (3, -9.76608023047447204590e-02) (4, 4.41495142877101898193e-02) (5, -7.81169533729553222656e-02) (6, -2.15694352984428405762e-01) (7, -6.16501197218894958496e-02) (8, -3.46193820238113403320e-01) (9, 3.25104743242263793945e-02) (10, 2.04353526234626770020e-01) (11, 4.21796999871730804443e-02) (12, -2.02894955873489379883e-01) (13, -1.87832430005073547363e-01) (14, -2.25931569933891296387e-01) (15, 1.03102236986160278320e-01) (16, -1.61667078733444213867e-01) (17, 1.73869609832763671875e-01) (18, 1.56649664044380187988e-01) (19, 4.27509732544422149658e-02) (20, 7.08932103589177131653e-03) (21, 2.15135201811790466309e-01) (22, 2.39237710833549499512e-01) (23, 1.74765706062316894531e-01) (24, 6.41101673245429992676e-02) (25, -1.31960481405258178711e-01) (26, -7.77493193745613098145e-02) (27, -1.63925826549530029297e-01) (28, -4.65173162519931793213e-02) (29, 3.74221913516521453857e-02) (30, 7.56835192441940307617e-02) (31, 1.23406037688255310059e-01) (32, 4.11265157163143157959e-02) (33, 5.57417497038841247559e-02) (34, 1.69487252831459045410e-01) (35, 1.02054931223392486572e-01) (36, -5.92574663460254669189e-02) (37, -2.16978602111339569092e-02) (38, 2.24885463714599609375e-01) (39, -2.78189063072204589844e-01) (40, 3.11090853065252304077e-02) (41, 7.90654569864273071289e-02) (42, 2.80920397490262985229e-02) (43, 4.56587448716163635254e-02) (44, 3.83461378514766693115e-02) (45, -2.35717579722404479980e-01) (46, -2.36340031027793884277e-01) (47, -4.10786747932434082031e-01) (48, -1.65643167495727539062e+00) (0, 1.58521473407745361328e-01) (1, -5.90207912027835845947e-02) (2, -1.44682750105857849121e-01) (3, 5.49332238733768463135e-02) (4, -2.78924822807312011719e-01) (5, -1.97837930172681808472e-02) (6, -2.10970744490623474121e-01) (7, -2.10908800363540649414e-01) (8, 1.22830942273139953613e-01) (9, -1.07701718807220458984e-01) (10, -2.19629421830177307129e-01) (11, -2.57341772317886352539e-01) (12, -7.92656093835830688477e-02) (13, -1.30412906408309936523e-01) (14, -1.06885388493537902832e-01) (15, -2.17920765280723571777e-01) (16, -5.29502965509891510010e-02) (17, -1.58204957842826843262e-01) (18, -9.79702994227409362793e-02) (19, -2.34378457069396972656e-01) (20, -3.22327136993408203125e-01) (21, -8.26280862092971801758e-02) (22, -1.88823029398918151855e-01) (23, -4.55489419400691986084e-02) (24, 1.70978419482707977295e-02) (25, -1.73820123076438903809e-01) (26, -1.30352601408958435059e-01) (27, -1.85852885246276855469e-01) (28, -5.42940422892570495605e-02) (29, -2.07492649555206298828e-01) (30, 3.22298817336559295654e-02) (31, -1.53384104371070861816e-01) (32, -2.61873900890350341797e-01) (33, -2.16351762413978576660e-01) (34, -2.00309097766876220703e-01) (35, -3.89315605163574218750e-01) (36, -3.71384948492050170898e-01) (37, -4.75309677422046661377e-02) (38, -1.22354678809642791748e-01) (39, -2.97091174870729446411e-02) (40, -1.81802749633789062500e-01) (41, -1.92503914237022399902e-01) (42, -1.19965605437755584717e-01) (43, -2.89421260356903076172e-01) (44, -3.96244764328002929688e-01) (45, -8.74048545956611633301e-02) (46, -1.57999753952026367188e-01) (47, 6.71611651778221130371e-02) (48, -1.50393497943878173828e+00) (0, -2.75874584913253784180e-02) (1, -7.05944597721099853516e-02) (2, -7.44943246245384216309e-02) (3, -9.44079533219337463379e-02) (4, -2.60428249835968017578e-01) (5, -2.22092330455780029297e-01) (6, -1.27678886055946350098e-01) (7, -6.50473088026046752930e-02) (8, -9.48680937290191650391e-02) (9, -2.83712953329086303711e-01) (10, 9.61221475154161453247e-03) (11, -1.01656086742877960205e-01) (12, -3.00045728683471679688e-01) (13, -8.29290598630905151367e-02) (14, -1.50543572381138801575e-02) (15, 4.23238761723041534424e-02) (16, -3.57190787792205810547e-01) (17, -2.86897718906402587891e-01) (18, -1.38142943382263183594e-01) (19, -1.48056685924530029297e-01) (20, -2.34743848443031311035e-01) (21, -2.98004984855651855469e-01) (22, -2.38193929195404052734e-01) (23, -3.66537928581237792969e-01) (24, -2.78090387582778930664e-01) (25, -9.56704393029212951660e-02) (26, -2.89844632148742675781e-01) (27, -3.64983260631561279297e-01) (28, -4.10279005765914916992e-01) (29, -2.54994928836822509766e-01) (30, -3.88105005025863647461e-01) (31, -2.17913433909416198730e-01) (32, -4.53090481460094451904e-02) (33, -3.19549560546875000000e-01) (34, -3.48934561014175415039e-01) (35, -5.30276238918304443359e-01) (36, -2.59511739015579223633e-01) (37, -3.62077146768569946289e-01) (38, -1.44196465611457824707e-01) (39, -6.05433844029903411865e-02) (40, 6.00991360843181610107e-02) (41, -1.81531101465225219727e-01) (42, -4.66897636651992797852e-02) (43, -7.62937784194946289062e-01) (44, -4.85112637281417846680e-01) (45, -3.42609196901321411133e-01) (46, -8.81115999072790145874e-03) (47, -1.31252586841583251953e-01) (48, -1.24018847942352294922e+00) (0, -9.24643203616142272949e-02) (1, -9.66381430625915527344e-02) (2, 4.36880476772785186768e-02) (3, 1.06737948954105377197e-02) (4, -6.80619418621063232422e-01) (5, -4.33044880628585815430e-01) (6, -2.49699369072914123535e-01) (7, 3.67535501718521118164e-02) (8, 3.31109613180160522461e-01) (9, -4.33658897876739501953e-01) (10, -1.68328300118446350098e-01) (11, -2.95275270938873291016e-01) (12, -4.49851602315902709961e-01) (13, -9.62430890649557113647e-03) (14, 1.96582481265068054199e-01) (15, 3.58152925968170166016e-01) (16, -4.43834036588668823242e-01) (17, -4.11514252424240112305e-01) (18, -2.40852341055870056152e-01) (19, -5.32759010791778564453e-01) (20, -5.98802745342254638672e-01) (21, -5.78231394290924072266e-01) (22, -4.59131240844726562500e-01) (23, -8.58937203884124755859e-01) (24, -1.31517753005027770996e-01) (25, -3.21794599294662475586e-01) (26, -6.44991755485534667969e-01) (27, -6.36155247688293457031e-01) (28, -5.33163487911224365234e-01) (29, -6.15905642509460449219e-01) (30, -9.13046181201934814453e-01) (31, -7.93073713779449462891e-01) (32, 5.53785786032676696777e-02) (33, -7.94020950794219970703e-01) (34, -8.68192255496978759766e-01) (35, -1.10182011127471923828e+00) (36, -7.01272070407867431641e-01) (37, -6.23825550079345703125e-01) (38, -4.01841998100280761719e-01) (39, 8.06680247187614440918e-02) (40, 1.52781710028648376465e-01) (41, -3.91903251409530639648e-01) (42, -1.32476225495338439941e-01) (43, -1.58770394325256347656e+00) (44, -8.70516955852508544922e-01) (45, -5.82970201969146728516e-01) (46, -2.31840796768665313721e-02) (47, -5.04436083137989044189e-02) (48, -1.81280300021171569824e-01) (0, 9.69838872551918029785e-02) (1, -7.30131268501281738281e-02) (2, -5.12925013899803161621e-02) (3, -6.90210312604904174805e-02) (4, -4.23223733901977539062e-01) (5, -2.70955711603164672852e-01) (6, -3.42759519815444946289e-01) (7, -2.48137861490249633789e-01) (8, 3.59573304653167724609e-01) (9, 4.65459749102592468262e-02) (10, -1.42016157507896423340e-01) (11, -2.17134594917297363281e-01) (12, -1.58734560012817382812e-01) (13, -3.38981628417968750000e-01) (14, -3.35337400436401367188e-01) (15, -3.17744642496109008789e-01) (16, 1.49127334356307983398e-01) (17, 3.14795970916748046875e-01) (18, -4.91940155625343322754e-02) (19, -4.39042001962661743164e-02) (20, -3.75750690698623657227e-01) (21, -4.31864932179450988770e-02) (22, -1.91832900047302246094e-01) (23, -1.00381776690483093262e-01) (24, 7.58102745749056339264e-04) (25, -1.10386773943901062012e-01) (26, 5.24122536182403564453e-01) (27, -8.77200141549110412598e-02) (28, 1.20612427592277526855e-01) (29, -1.70210748910903930664e-01) (30, 2.19989977777004241943e-02) (31, -2.91696071624755859375e-01) (32, -3.58591645956039428711e-01) (33, -2.99107134342193603516e-01) (34, -1.22423291206359863281e-01) (35, 1.64631217718124389648e-01) (36, -2.87312716245651245117e-01) (37, 1.07839971780776977539e-01) (38, 7.37264156341552734375e-02) (39, 1.04288542643189430237e-02) (40, -4.38589364290237426758e-01) (41, -2.79276549816131591797e-01) (42, -3.19173634052276611328e-01) (43, -1.00770145654678344727e-02) (44, -1.07157804071903228760e-01) (45, 1.74096316099166870117e-01) (46, 1.54476866126060485840e-01) (47, 4.84360614791512489319e-03) (48, -1.72023046016693115234e+00) (0, -1.28004968166351318359e-01) (1, -1.02306567132472991943e-01) (2, -2.25024133920669555664e-01) (3, -2.02265977859497070312e-01) (4, -5.03003954887390136719e-01) (5, -3.03259849548339843750e-01) (6, -1.29623115062713623047e-01) (7, -4.38319258391857147217e-02) (8, -4.38831858336925506592e-02) (9, -3.68659526109695434570e-01) (10, -1.99137717485427856445e-01) (11, -2.83242106437683105469e-01) (12, -4.04937446117401123047e-01) (13, -7.32563659548759460449e-02) (14, -3.77355664968490600586e-02) (15, 2.91158288717269897461e-01) (16, -3.21253627538681030273e-01) (17, -2.91834264993667602539e-01) (18, -2.72536009550094604492e-01) (19, -4.95732039213180541992e-01) (20, -4.96641278266906738281e-01) (21, -5.10792195796966552734e-01) (22, -3.32188129425048828125e-01) (23, -5.25265634059906005859e-01) (24, -1.49937629699707031250e-01) (25, -3.03378582000732421875e-01) (26, -4.50944483280181884766e-01) (27, -4.13778960704803466797e-01) (28, -4.13618296384811401367e-01) (29, -4.39404368400573730469e-01) (30, -6.13196969032287597656e-01) (31, -6.63540422916412353516e-01) (32, 1.00096009671688079834e-01) (33, -4.42465603351593017578e-01) (34, -5.74994325637817382812e-01) (35, -8.41308116912841796875e-01) (36, -6.60497307777404785156e-01) (37, -4.93046104907989501953e-01) (38, -4.69779521226882934570e-01) (39, -1.19656600058078765869e-01) (40, 2.67488896846771240234e-01) (41, -1.56109675765037536621e-01) (42, -1.05121843516826629639e-01) (43, -1.01308178901672363281e+00) (44, -6.86855435371398925781e-01) (45, -4.85089331865310668945e-01) (46, -5.12635186314582824707e-02) (47, 3.55236371979117393494e-03) (48, -7.02342510223388671875e-01) (0, -3.87835316359996795654e-02) (1, -1.49549722671508789062e-01) (2, 7.93415606021881103516e-02) (3, -3.89134362339973449707e-02) (4, 2.57240273058414459229e-02) (5, 8.09302181005477905273e-02) (6, -1.50836661458015441895e-01) (7, -1.86075747013092041016e-01) (8, -1.82830721139907836914e-01) (9, 3.71960625052452087402e-02) (10, 1.96608886122703552246e-01) (11, 3.36219407618045806885e-02) (12, -3.02527070045471191406e-01) (13, -1.89563989639282226562e-01) (14, -2.05707401037216186523e-01) (15, -1.35030940175056457520e-01) (16, 1.56723469495773315430e-01) (17, 9.30639952421188354492e-02) (18, 1.86258628964424133301e-01) (19, 1.43770286813378334045e-02) (20, -5.18851950764656066895e-02) (21, -9.44551080465316772461e-02) (22, 6.15683421492576599121e-02) (23, 2.93510437011718750000e-01) (24, 9.65322405099868774414e-02) (25, 1.42665356397628784180e-01) (26, 6.37369826436042785645e-02) (27, -1.87482442706823348999e-02) (28, -1.58422291278839111328e-01) (29, 1.74758285284042358398e-01) (30, 4.15734320878982543945e-01) (31, 2.64430582523345947266e-01) (32, 2.28616860113106667995e-04) (33, 3.13704043626785278320e-01) (34, 2.02187806367874145508e-01) (35, 9.52310711145401000977e-02) (36, -1.59440038260072469711e-03) (37, 2.03827872872352600098e-01) (38, 1.95386826992034912109e-01) (39, -4.62718047201633453369e-02) (40, -1.95415951311588287354e-02) (41, 6.36059045791625976562e-02) (42, -1.65036842226982116699e-01) (43, 3.62941503524780273438e-01) (44, 8.84948000311851501465e-02) (45, -8.41895584017038345337e-03) (46, -1.37841189280152320862e-02) (47, -1.62930991500616073608e-02) (48, -1.64604175090789794922e+00) (0, -5.14690391719341278076e-02) (1, -3.04145272821187973022e-02) (2, -1.23918287456035614014e-01) (3, -1.20770700275897979736e-01) (4, -2.29418426752090454102e-01) (5, -1.68945074081420898438e-01) (6, -1.32181718945503234863e-01) (7, -1.34935617446899414062e-01) (8, -1.85779184103012084961e-01) (9, -5.52516989409923553467e-02) (10, -8.29052329063415527344e-02) (11, -6.03302381932735443115e-02) (12, -1.49349465966224670410e-01) (13, -1.38325199484825134277e-01) (14, -8.12142789363861083984e-02) (15, 2.03493963927030563354e-02) (16, -9.00975335389375686646e-03) (17, 1.91466417163610458374e-02) (18, -1.38338834047317504883e-01) (19, -2.15115159749984741211e-01) (20, -2.08204925060272216797e-01) (21, -1.57892465591430664062e-01) (22, -1.29435792565345764160e-01) (23, -1.01151354610919952393e-01) (24, 3.48225235939025878906e-02) (25, -1.43762186169624328613e-01) (26, -1.32168084383010864258e-01) (27, -2.78468817472457885742e-01) (28, -3.07566672563552856445e-01) (29, -9.51518565416336059570e-02) (30, -7.11811035871505737305e-02) (31, -5.58748990297317504883e-02) (32, 5.57263493537902832031e-02) (33, -1.14164732396602630615e-01) (34, -7.56283327937126159668e-02) (35, -3.00564259290695190430e-01) (36, -2.76278287172317504883e-01) (37, -2.72425234317779541016e-01) (38, -1.51375249028205871582e-01) (39, -1.27635553479194641113e-01) (40, 3.88848073780536651611e-02) (41, -1.55468344688415527344e-01) (42, -1.41198471188545227051e-01) (43, -1.77827328443527221680e-01) (44, -1.84023261070251464844e-01) (45, -5.26950694620609283447e-02) (46, -9.75223258137702941895e-02) (47, -9.17195528745651245117e-02) (48, -1.51706814765930175781e+00) (0, -2.52974122762680053711e-01) (1, -1.60949647426605224609e-01) (2, -2.63044517487287521362e-02) (3, -7.54650831222534179688e-02) (4, 8.02816897630691528320e-02) (5, -7.98668116331100463867e-02) (6, -1.35367035865783691406e-01) (7, 5.44159933924674987793e-02) (8, -2.78070509433746337891e-01) (9, 9.95216667652130126953e-02) (10, 3.90456952154636383057e-02) (11, 3.75657714903354644775e-02) (12, -1.40911251306533813477e-01) (13, -3.22165101766586303711e-01) (14, -2.21372812986373901367e-01) (15, -8.71272981166839599609e-02) (16, 4.89951297640800476074e-03) (17, 1.38049215078353881836e-01) (18, 5.79363778233528137207e-02) (19, 1.08908317983150482178e-01) (20, -2.13200375437736511230e-02) (21, -1.64669137448072433472e-02) (22, 2.39366203546524047852e-01) (23, 5.44656887650489807129e-02) (24, 2.96655241400003433228e-02) (25, 3.62695194780826568604e-02) (26, 7.56407901644706726074e-02) (27, -1.02467291057109832764e-01) (28, -2.42861032485961914062e-01) (29, 8.41948911547660827637e-02) (30, 7.97009319067001342773e-02) (31, 1.34010568261146545410e-01) (32, 5.06130047142505645752e-02) (33, 2.04721778631210327148e-01) (34, 3.73124368488788604736e-02) (35, 2.28563579730689525604e-03) (36, -6.22627325356006622314e-03) (37, 3.05596739053726196289e-02) (38, 8.03930237889289855957e-02) (39, -1.80305078625679016113e-01) (40, -3.96658405661582946777e-02) (41, 9.44759994745254516602e-02) (42, -2.33204569667577743530e-03) (43, 1.29688888788223266602e-01) (44, -4.55968230962753295898e-02) (45, -1.39869317412376403809e-01) (46, -1.24820187687873840332e-01) (47, -3.26039820909500122070e-01) (48, -1.67474043369293212891e+00) (0, -1.78817100822925567627e-02) (1, -3.66587676107883453369e-02) (2, -2.49981135129928588867e-01) (3, -4.03478369116783142090e-02) (4, -3.09874713420867919922e-01) (5, -1.65673270821571350098e-01) (6, -3.19722414016723632812e-01) (7, -2.73889362812042236328e-01) (8, 4.57568168640136718750e-02) (9, 1.90636459738016128540e-02) (10, -1.27737924456596374512e-01) (11, -2.89783686399459838867e-01) (12, -2.71562617272138595581e-02) (13, -1.33648589253425598145e-01) (14, -1.21663644909858703613e-01) (15, -7.87067264318466186523e-02) (16, 2.65278339385986328125e-01) (17, -1.32839307188987731934e-01) (18, -9.34321358799934387207e-02) (19, -1.99792250990867614746e-01) (20, -2.83033043146133422852e-01) (21, -1.53238669037818908691e-01) (22, -4.54367604106664657593e-03) (23, -2.34023079276084899902e-01) (24, 1.82773664593696594238e-01) (25, -5.72834052145481109619e-02) (26, -6.25710785388946533203e-02) (27, -2.22209632396697998047e-01) (28, 9.55380406230688095093e-03) (29, -1.56341657042503356934e-01) (30, -7.31700286269187927246e-02) (31, -2.65987098217010498047e-01) (32, -2.18172237277030944824e-01) (33, 4.68955654650926589966e-03) (34, -1.67045220732688903809e-02) (35, -3.74881327152252197266e-01) (36, -5.27633011341094970703e-01) (37, -5.40730729699134826660e-02) (38, -1.82448960840702056885e-02) (39, -1.39556258916854858398e-01) (40, -3.51358890533447265625e-01) (41, -2.79441744089126586914e-01) (42, -1.19788274168968200684e-01) (43, -2.47910380363464355469e-01) (44, -4.00374323129653930664e-01) (45, -2.04133316874504089355e-01) (46, -5.60630112886428833008e-02) (47, 1.72581523656845092773e-01) (48, -1.58126246929168701172e+00) (0, 1.31545439362525939941e-01) (1, -1.05579636991024017334e-01) (2, -2.04691782593727111816e-01) (3, 6.75100088119506835938e-02) (4, -3.19750577211380004883e-01) (5, -1.68758019804954528809e-01) (6, -2.39625275135040283203e-01) (7, -3.11363577842712402344e-01) (8, 7.65831544995307922363e-02) (9, -3.72379511594772338867e-01) (10, -2.38806933164596557617e-01) (11, -3.36705952882766723633e-01) (12, -3.48009876906871795654e-02) (13, 6.38296902179718017578e-02) (14, 1.63384020328521728516e-01) (15, -4.88380677998065948486e-02) (16, -1.83312088251113891602e-01) (17, -5.26439309120178222656e-01) (18, -3.93920302391052246094e-01) (19, -3.98453950881958007812e-01) (20, -3.14740896224975585938e-01) (21, -2.67895191907882690430e-01) (22, -1.56823262572288513184e-01) (23, -3.29782366752624511719e-01) (24, -1.16074711084365844727e-01) (25, -4.21905398368835449219e-01) (26, -4.44672167301177978516e-01) (27, -5.01666009426116943359e-01) (28, -3.24937194585800170898e-01) (29, -5.08944153785705566406e-01) (30, -1.71628832817077636719e-01) (31, -4.60238635540008544922e-01) (32, -1.49085402488708496094e-01) (33, -5.34714043140411376953e-01) (34, -4.70532625913619995117e-01) (35, -7.82088756561279296875e-01) (36, -5.32903969287872314453e-01) (37, -3.73989224433898925781e-01) (38, -5.01383006572723388672e-01) (39, -1.20866127312183380127e-01) (40, -1.62366796284914016724e-02) (41, -2.28268027305603027344e-01) (42, -7.22690448164939880371e-02) (43, -5.85265278816223144531e-01) (44, -4.69951093196868896484e-01) (45, -3.34486573934555053711e-01) (46, -7.21031650900840759277e-02) (47, 2.74705700576305389404e-02) (48, -1.07885682582855224609e+00) (0, -2.97498375177383422852e-01) (1, -4.09616947174072265625e-01) (2, -7.99557790160179138184e-02) (3, 6.72209858894348144531e-02) (4, -3.55661809444427490234e-02) (5, -9.20748896896839141846e-03) (6, -9.16537195444107055664e-02) (7, 8.17325562238693237305e-02) (8, -5.02818286418914794922e-01) (9, -1.57389074563980102539e-01) (10, 3.30932438373565673828e-01) (11, 1.11285708844661712646e-01) (12, 1.13680370151996612549e-01) (13, 2.93661832809448242188e-01) (14, -5.00766523182392120361e-02) (15, 5.88759779930114746094e-03) (16, -2.24433317780494689941e-01) (17, -1.23289309442043304443e-01) (18, 5.13827204704284667969e-01) (19, 3.92352551221847534180e-01) (20, 2.71923720836639404297e-01) (21, 4.99019682407379150391e-01) (22, 4.37924385070800781250e-01) (23, 2.83177644014358520508e-02) (24, -1.86943840235471725464e-02) (25, -1.54074840247631072998e-02) (26, 1.91750183701515197754e-01) (27, -3.98020073771476745605e-03) (28, 2.31616958975791931152e-01) (29, 5.25379478931427001953e-01) (30, 4.55046921968460083008e-01) (31, -2.74470388889312744141e-01) (32, 1.64901390671730041504e-01) (33, 2.30738699436187744141e-01) (34, 4.01513785123825073242e-01) (35, 7.00192332267761230469e-01) (36, 2.17763200402259826660e-01) (37, 4.65164929628372192383e-01) (38, -2.07292228937149047852e-01) (39, -4.35865134000778198242e-01) (40, 8.91246274113655090332e-02) (41, 2.08825364708900451660e-01) (42, 5.82657158374786376953e-01) (43, 3.16839069128036499023e-01) (44, -2.41820544004440307617e-01) (45, -2.18129321932792663574e-01) (46, -7.36540913581848144531e-01) (47, -3.51705789566040039062e-01) (48, -1.93870329856872558594e+00) (0, -8.54330509901046752930e-02) (1, -2.67209708690643310547e-01) (2, -3.14653038978576660156e-01) (3, -2.49161586165428161621e-01) (4, -6.26219213008880615234e-01) (5, -3.36663424968719482422e-01) (6, 4.65258695185184478760e-02) (7, 8.80570039153099060059e-02) (8, -7.19158574938774108887e-02) (9, -4.30904388427734375000e-01) (10, -1.82322517037391662598e-01) (11, -3.09270709753036499023e-01) (12, -5.08929133415222167969e-01) (13, -8.60083401203155517578e-02) (14, -1.38263329863548278809e-02) (15, 2.00840517878532409668e-01) (16, -5.73235571384429931641e-01) (17, -6.30977690219879150391e-01) (18, -3.68801951408386230469e-01) (19, -4.23290371894836425781e-01) (20, -4.12359446287155151367e-01) (21, -4.19549494981765747070e-01) (22, -3.30841988325119018555e-01) (23, -4.20659601688385009766e-01) (24, -4.41204905509948730469e-01) (25, -4.24355298280715942383e-01) (26, -6.94800972938537597656e-01) (27, -4.85526144504547119141e-01) (28, -4.73800152540206909180e-01) (29, -5.45781016349792480469e-01) (30, -6.88776195049285888672e-01) (31, -3.42397302389144897461e-01) (32, -7.79160335659980773926e-02) (33, -7.31299996376037597656e-01) (34, -7.70741999149322509766e-01) (35, -9.27690982818603515625e-01) (36, -3.45113396644592285156e-01) (37, -5.07718324661254882812e-01) (38, -1.68081253767013549805e-01) (39, -1.80701732635498046875e-01) (40, 1.84734091162681579590e-01) (41, -2.58343875408172607422e-01) (42, 2.75429692119359970093e-02) (43, -1.21510124206542968750e+00) (44, -6.94371223449707031250e-01) (45, -3.98041188716888427734e-01) (46, -1.64644289761781692505e-02) (47, -1.36814862489700317383e-01) (48, -5.92275381088256835938e-01) (0, -9.20084193348884582520e-02) (1, -2.81824946403503417969e-01) (2, -2.59383946657180786133e-01) (3, -7.29075819253921508789e-02) (4, -5.66729545593261718750e-01) (5, -4.78487849235534667969e-01) (6, -6.07783533632755279541e-02) (7, 1.57773435115814208984e-01) (8, -8.77742096781730651855e-03) (9, -5.15438258647918701172e-01) (10, -1.89301162958145141602e-01) (11, -6.84937983751296997070e-02) (12, -7.54335701465606689453e-01) (13, 2.59187780320644378662e-02) (14, 1.36634334921836853027e-01) (15, 3.88916023075580596924e-02) (16, -4.32188719511032104492e-01) (17, -6.03513121604919433594e-01) (18, -2.29188799858093261719e-01) (19, -2.73809492588043212891e-01) (20, -1.73644334077835083008e-01) (21, -2.22147405147552490234e-01) (22, -1.84605959802865982056e-02) (23, -1.52696102857589721680e-01) (24, -4.70996439456939697266e-01) (25, -3.25691282749176025391e-01) (26, -4.22262459993362426758e-01) (27, -2.80115604400634765625e-01) (28, -2.08969563245773315430e-01) (29, -1.67561367154121398926e-01) (30, -1.92509755492210388184e-01) (31, -8.10546278953552246094e-02) (32, -1.24401440843939781189e-02) (33, -5.73781311511993408203e-01) (34, -4.75681006908416748047e-01) (35, -4.69073265790939331055e-01) (36, -1.95463731884956359863e-01) (37, -1.03117384016513824463e-01) (38, 1.07784450054168701172e-01) (39, -1.00522711873054504395e-01) (40, 3.19964177906513214111e-02) (41, -2.41481095552444458008e-01) (42, 2.11589679121971130371e-01) (43, -7.79614090919494628906e-01) (44, -2.90943622589111328125e-01) (45, -2.15540215373039245605e-01) (46, 3.13569121062755584717e-02) (47, -2.50677138566970825195e-01) (48, -1.35518860816955566406e+00) (0, -1.13640725612640380859e-01) (1, -9.75051820278167724609e-02) (2, -8.52346047759056091309e-02) (3, -1.87004745006561279297e-01) (4, -1.26553624868392944336e-01) (5, 1.67334564030170440674e-02) (6, -9.32141020894050598145e-02) (7, 6.78708544000983238220e-03) (8, -2.38036066293716430664e-01) (9, -1.00933805108070373535e-01) (10, 1.99789926409721374512e-02) (11, 1.35154519230127334595e-02) (12, -1.14901751279830932617e-01) (13, -1.76779925823211669922e-01) (14, -2.07242697477340698242e-01) (15, -4.01443168520927429199e-02) (16, -2.47326567769050598145e-02) (17, 6.79436102509498596191e-02) (18, -4.92410287261009216309e-02) (19, 3.00489272922277450562e-02) (20, -3.91677692532539367676e-02) (21, -7.20255151391029357910e-02) (22, 1.30073979496955871582e-01) (23, -1.38202235102653503418e-01) (24, 4.38854210078716278076e-02) (25, -1.09556712210178375244e-01) (26, -9.24837216734886169434e-03) (27, -3.31778340041637420654e-02) (28, -1.89692229032516479492e-01) (29, -1.30786120891571044922e-01) (30, -1.73436388373374938965e-01) (31, 3.42500247061252593994e-02) (32, 5.49988960847258567810e-03) (33, 8.17511752247810363770e-02) (34, 4.61052097380161285400e-02) (35, -5.66046684980392456055e-02) (36, -2.27240324020385742188e-01) (37, -1.67541280388832092285e-01) (38, -6.10621646046638488770e-02) (39, -1.17174409329891204834e-01) (40, 1.75840668380260467529e-02) (41, 5.61288036406040191650e-02) (42, -7.04363062977790832520e-02) (43, -2.14654296636581420898e-01) (44, -2.31706127524375915527e-01) (45, -1.58046990633010864258e-01) (46, -2.23535865545272827148e-01) (47, -3.09504836797714233398e-01) (48, -1.61426913738250732422e+00) (0, -8.91025140881538391113e-02) (1, 3.74924726784229278564e-02) (2, 4.10088673233985900879e-02) (3, -9.69343930482864379883e-02) (4, -4.93389694020152091980e-03) (5, 4.39145490527153015137e-02) (6, -1.14135697484016418457e-01) (7, 3.34136001765727996826e-02) (8, -3.77425327897071838379e-02) (9, 5.08847720921039581299e-02) (10, 7.56958946585655212402e-02) (11, 4.99006770551204681396e-02) (12, -1.39104634523391723633e-01) (13, -2.04700306057929992676e-01) (14, -1.36968806385993957520e-01) (15, -6.42530694603919982910e-02) (16, 6.18839357048273086548e-03) (17, 5.25313578546047210693e-02) (18, 6.44082054495811462402e-02) (19, 1.64068229496479034424e-02) (20, -1.18276417255401611328e-01) (21, 2.57816016674041748047e-02) (22, -1.37450648471713066101e-02) (23, -4.05629798769950866699e-02) (24, 1.28418449312448501587e-02) (25, 2.40588206797838211060e-02) (26, -9.78830154053866863251e-04) (27, -1.78918629884719848633e-01) (28, -1.14022441208362579346e-01) (29, -5.87605424225330352783e-02) (30, 5.56896952912211418152e-03) (31, 9.90935191512107849121e-02) (32, -5.29310852289199829102e-02) (33, 6.79301396012306213379e-02) (34, 8.54026600718498229980e-02) (35, -8.12925100326538085938e-02) (36, -2.08695977926254272461e-01) (37, -1.13138727843761444092e-01) (38, 2.66758003272116184235e-03) (39, -2.04563200473785400391e-01) (40, 1.16922892630100250244e-03) (41, -5.12201376259326934814e-02) (42, -1.57862767577171325684e-01) (43, 4.62846755981445312500e-02) (44, -7.32634663581848144531e-02) (45, -7.24429413676261901855e-02) (46, -1.59569159150123596191e-01) (47, -2.43008047342300415039e-01) (48, -1.62565100193023681641e+00) (0, -1.94090962409973144531e-01) (1, 1.23269101604819297791e-02) (2, 1.99448332190513610840e-01) (3, -2.58678346872329711914e-02) (4, -7.33719468116760253906e-01) (5, -5.41541337966918945312e-01) (6, -1.91411897540092468262e-01) (7, 2.97772258520126342773e-01) (8, 3.28014791011810302734e-01) (9, -2.96110838651657104492e-01) (10, 1.15470282733440399170e-01) (11, -1.34739652276039123535e-01) (12, -7.70128726959228515625e-01) (13, 7.20973461866378784180e-02) (14, 1.96061044931411743164e-01) (15, 4.46539819240570068359e-01) (16, -4.50480639934539794922e-01) (17, -2.22465842962265014648e-01) (18, -1.74606502056121826172e-01) (19, -5.30903577804565429688e-01) (20, -6.59454703330993652344e-01) (21, -3.20326745510101318359e-01) (22, -3.33354353904724121094e-01) (23, -7.93177664279937744141e-01) (24, -1.87292993068695068359e-01) (25, -1.16127364337444305420e-01) (26, -8.06716740131378173828e-01) (27, -6.23078465461730957031e-01) (28, -4.87863451242446899414e-01) (29, -6.04914605617523193359e-01) (30, -8.67340087890625000000e-01) (31, -5.56466639041900634766e-01) (32, 1.69237211346626281738e-01) (33, -6.55927121639251708984e-01) (34, -8.46784472465515136719e-01) (35, -9.24964427947998046875e-01) (36, -5.26980996131896972656e-01) (37, -5.25554656982421875000e-01) (38, -1.95592388510704040527e-01) (39, 4.15462739765644073486e-02) (40, 3.28339487314224243164e-01) (41, -3.37701529264450073242e-01) (42, -6.38016778975725173950e-03) (43, -1.38847339153289794922e+00) (44, -7.39219605922698974609e-01) (45, -4.76175755262374877930e-01) (46, 7.14215189218521118164e-02) (47, -8.27508494257926940918e-02) (48, -4.67288970947265625000e-01) (0, -1.95236623287200927734e-01) (1, -9.35788452625274658203e-02) (2, -1.04799382388591766357e-01) (3, -4.98347580432891845703e-02) (4, 2.44961939752101898193e-02) (5, -6.10292591154575347900e-02) (6, -1.92021936178207397461e-01) (7, 8.30883756279945373535e-02) (8, -3.72989356517791748047e-01) (9, -2.78550069779157638550e-02) (10, 3.10595259070396423340e-02) (11, 8.27868655323982238770e-02) (12, -2.42541655898094177246e-01) (13, -1.29381626844406127930e-01) (14, -1.51497259736061096191e-01) (15, 1.27239644527435302734e-01) (16, -2.98480857163667678833e-02) (17, 4.89787496626377105713e-02) (18, 1.61071911454200744629e-01) (19, 1.74395024776458740234e-01) (20, 8.57408642768859863281e-02) (21, 1.70247212052345275879e-01) (22, 2.76997625827789306641e-01) (23, 6.84135779738426208496e-02) (24, 1.52038065716624259949e-02) (25, -9.15160998702049255371e-02) (26, 1.96799188852310180664e-02) (27, -1.06277294456958770752e-01) (28, -2.33780294656753540039e-02) (29, 4.80014197528362274170e-02) (30, 1.91592365503311157227e-01) (31, 4.88625951111316680908e-02) (32, -7.69903883337974548340e-02) (33, -4.49293729616329073906e-04) (34, 7.47138336300849914551e-02) (35, 2.20895498991012573242e-01) (36, 4.30052448064088821411e-03) (37, 1.60776712000370025635e-02) (38, 1.65237814188003540039e-01) (39, -3.49401235580444335938e-01) (40, 1.10989846289157867432e-01) (41, 1.33959159255027770996e-01) (42, 1.85141324996948242188e-01) (43, 1.24251181259751319885e-02) (44, -1.62891656160354614258e-01) (45, -2.70901560783386230469e-01) (46, -3.46841573715209960938e-01) (47, -4.17793095111846923828e-01) (48, -1.68104648590087890625e+00) (0, 4.17296171188354492188e-01) (1, 5.07811009883880615234e-01) (2, 7.79661238193511962891e-01) (3, 9.33601737022399902344e-01) (4, -3.24025243520736694336e-01) (5, 5.10448999702930450439e-02) (6, -6.16431236267089843750e-01) (7, 8.32376033067703247070e-02) (8, 3.19552770815789699554e-03) (9, 6.87483921647071838379e-02) (10, 1.20535939931869506836e-01) (11, 9.70744714140892028809e-02) (12, 6.87588274478912353516e-01) (13, 4.01242494583129882812e-01) (14, -2.57037907838821411133e-01) (15, -1.71205982565879821777e-01) (16, -2.82719552516937255859e-01) (17, -4.72184240818023681641e-01) (18, 1.09083652496337890625e-01) (19, 6.91133320331573486328e-01) (20, -6.26556798815727233887e-02) (21, 2.58084893226623535156e-01) (22, 3.53920370340347290039e-01) (23, 4.24443960189819335938e-01) (24, -8.32085311412811279297e-01) (25, -7.02484965324401855469e-01) (26, -7.66314387321472167969e-01) (27, -2.66313552856445312500e-01) (28, 8.34383547306060791016e-01) (29, 4.40322548151016235352e-01) (30, 2.77182936668395996094e-01) (31, -2.07605004310607910156e-01) (32, -3.62266838550567626953e-01) (33, -8.53193342685699462891e-01) (34, -6.90416634082794189453e-01) (35, -8.07605326175689697266e-01) (36, -8.51014316082000732422e-01) (37, 1.16609603166580200195e-01) (38, 7.99638628959655761719e-01) (39, 2.84061253070831298828e-01) (40, -4.82041895389556884766e-01) (41, -2.88602530956268310547e-01) (42, -8.30375671386718750000e-01) (43, -7.91385710239410400391e-01) (44, -5.39768636226654052734e-01) (45, -5.33189594745635986328e-01) (46, 2.52421706914901733398e-01) (47, 5.14442861080169677734e-01) (48, -2.42391991615295410156e+00) (0, -2.97671873122453689575e-02) (1, -5.40618300437927246094e-02) (2, -1.77975699305534362793e-01) (3, -1.43455937504768371582e-01) (4, -3.63862276077270507812e-01) (5, -8.05398374795913696289e-02) (6, -2.11837574839591979980e-01) (7, -1.23441755771636962891e-01) (8, 8.50774496793746948242e-02) (9, -2.08646148443222045898e-01) (10, -1.34562745690345764160e-01) (11, -3.01962763071060180664e-01) (12, -3.26336294412612915039e-01) (13, -2.57431536912918090820e-01) (14, -1.88512057065963745117e-01) (15, 5.07233105599880218506e-03) (16, 6.93476200103759765625e-02) (17, -1.66001126170158386230e-01) (18, -1.80464878678321838379e-01) (19, -2.57652789354324340820e-01) (20, -3.03168386220932006836e-01) (21, -3.27503949403762817383e-01) (22, -1.76567345857620239258e-01) (23, -3.42357337474822998047e-01) (24, 8.68118330836296081543e-02) (25, -2.64315724372863769531e-01) (26, -4.89878281950950622559e-02) (27, -3.76361399888992309570e-01) (28, -1.75992339849472045898e-01) (29, -2.43532598018646240234e-01) (30, -2.15614408254623413086e-01) (31, -4.46912914514541625977e-01) (32, -8.98073464632034301758e-02) (33, -2.38799721002578735352e-01) (34, -1.23435094952583312988e-01) (35, -3.98992776870727539062e-01) (36, -3.44417273998260498047e-01) (37, -2.75203615427017211914e-01) (38, -3.65502625703811645508e-01) (39, -9.75364446640014648438e-02) (40, -1.96159243583679199219e-01) (41, -1.24263465404510498047e-01) (42, -6.35487884283065795898e-02) (43, -3.49290728569030761719e-01) (44, -4.99154478311538696289e-01) (45, -1.88951626420021057129e-01) (46, -9.12953317165374755859e-02) (47, 4.47622016072273254395e-02) (48, -1.42645967006683349609e+00) (0, 1.12355761229991912842e-01) (1, -6.62512183189392089844e-02) (2, -3.63649874925613403320e-01) (3, -1.69978618621826171875e-01) (4, -9.06216323375701904297e-01) (5, -1.03912961483001708984e+00) (6, -9.11481976509094238281e-01) (7, -2.04640731215476989746e-01) (8, 6.88252806663513183594e-01) (9, -7.46160984039306640625e-01) (10, -1.68321222066879272461e-01) (11, -5.05466580390930175781e-01) (12, -1.12527823448181152344e+00) (13, -4.97224748134613037109e-01) (14, 5.11711575090885162354e-02) (15, -5.57047352194786071777e-02) (16, -6.23620986938476562500e-01) (17, -1.21339380741119384766e+00) (18, -5.00178098678588867188e-01) (19, -5.98903894424438476562e-01) (20, -8.24109911918640136719e-01) (21, -2.75566816329956054688e-01) (22, -7.38549232482910156250e-02) (23, -1.43559515476226806641e-01) (24, -6.88794314861297607422e-01) (25, -9.19691324234008789062e-01) (26, -1.32114243507385253906e+00) (27, -8.75861644744873046875e-01) (28, -2.77144193649291992188e-01) (29, -7.80246615409851074219e-01) (30, -6.12692356109619140625e-01) (31, 1.49077951908111572266e-01) (32, -8.10593843460083007812e-01) (33, -1.44049036502838134766e+00) (34, -1.07751429080963134766e+00) (35, -1.08624339103698730469e+00) (36, -1.67154103517532348633e-01) (37, -1.95831239223480224609e-01) (38, 4.44242030382156372070e-01) (39, -3.38959991931915283203e-01) (40, -4.23721633851528167725e-02) (41, -1.08020222187042236328e+00) (42, 1.52229785919189453125e-01) (43, -1.99004173278808593750e+00) (44, -1.86070427298545837402e-01) (45, -2.75314785540103912354e-02) (46, 5.27394473552703857422e-01) (47, 3.31785157322883605957e-02) (48, -4.28909122943878173828e-01) (0, -3.05459462106227874756e-02) (1, -4.61773052811622619629e-02) (2, -2.41135671734809875488e-01) (3, -2.15420097112655639648e-01) (4, -2.44902968406677246094e-01) (5, -2.26867333054542541504e-01) (6, -8.15565884113311767578e-02) (7, -3.04353702813386917114e-02) (8, -8.31455215811729431152e-02) (9, -3.34072262048721313477e-01) (10, -1.70075416564941406250e-01) (11, -1.73318311572074890137e-01) (12, -2.12900727987289428711e-01) (13, -1.79952248930931091309e-01) (14, -1.27159819006919860840e-01) (15, -5.68361580371856689453e-02) (16, -2.56975591182708740234e-01) (17, -3.41715186834335327148e-01) (18, -1.14031873643398284912e-01) (19, -2.82056868076324462891e-01) (20, -2.26373627781867980957e-01) (21, -2.38739520311355590820e-01) (22, -2.76608645915985107422e-01) (23, -2.04213112592697143555e-01) (24, -1.54391244053840637207e-01) (25, -2.82012313604354858398e-01) (26, -2.77083128690719604492e-01) (27, -2.69869238138198852539e-01) (28, -3.81277769804000854492e-01) (29, -3.14689159393310546875e-01) (30, -3.11881959438323974609e-01) (31, -2.13921695947647094727e-01) (32, -1.03954613208770751953e-01) (33, -2.81756848096847534180e-01) (34, -2.93525189161300659180e-01) (35, -4.06956106424331665039e-01) (36, -2.69452810287475585938e-01) (37, -2.82222092151641845703e-01) (38, -2.14621856808662414551e-01) (39, -1.89382940530776977539e-01) (40, 5.47095723450183868408e-02) (41, -1.66883811354637145996e-01) (42, -7.87631794810295104980e-02) (43, -6.50812089443206787109e-01) (44, -3.84481966495513916016e-01) (45, -2.35524833202362060547e-01) (46, -1.18448033928871154785e-01) (47, -1.53097078204154968262e-01) (48, -1.25571262836456298828e+00) (0, -2.47614830732345581055e-01) (1, -2.02174872159957885742e-01) (2, -4.79707568883895874023e-02) (3, -9.47209522128105163574e-02) (4, -3.60452622175216674805e-01) (5, -1.30308583378791809082e-01) (6, 1.41976808663457632065e-03) (7, 1.41387075185775756836e-01) (8, -1.57225489616394042969e-01) (9, -2.63716787099838256836e-01) (10, 2.18066554516553878784e-02) (11, 3.30734699964523315430e-02) (12, -4.16488856077194213867e-01) (13, -1.43065333366394042969e-01) (14, 4.41163145005702972412e-02) (15, 1.93482905626296997070e-01) (16, -3.66601973772048950195e-01) (17, -1.79425701498985290527e-01) (18, -7.66719207167625427246e-02) (19, -1.74210071563720703125e-01) (20, -2.72514402866363525391e-01) (21, -2.08597809076309204102e-01) (22, 2.99629545770585536957e-03) (23, -2.43396654725074768066e-01) (24, -2.13331893086433410645e-01) (25, -1.86106219887733459473e-01) (26, -4.30333077907562255859e-01) (27, -2.84272700548171997070e-01) (28, -3.16973477602005004883e-01) (29, -1.54153540730476379395e-01) (30, -2.15287342667579650879e-01) (31, -1.61331683397293090820e-01) (32, 8.12669321894645690918e-02) (33, -1.54085308313369750977e-01) (34, -2.99454182386398315430e-01) (35, -1.83775022625923156738e-01) (36, -2.69015282392501831055e-01) (37, -2.57940948009490966797e-01) (38, -2.19265297055244445801e-02) (39, -1.89471349120140075684e-01) (40, 1.41024604439735412598e-01) (41, 1.10112801194190979004e-02) (42, 3.76780293881893157959e-02) (43, -5.76746165752410888672e-01) (44, -4.17148321866989135742e-01) (45, -1.41598373651504516602e-01) (46, -1.13979101181030273438e-01) (47, -2.49977871775627136230e-01) (48, -1.41162049770355224609e+00) (0, 6.00312538444995880127e-02) (1, 3.23157943785190582275e-02) (2, 6.77890554070472717285e-02) (3, -9.26299486309289932251e-03) (4, -5.15420921146869659424e-02) (5, -2.28982511907815933228e-02) (6, -1.18143662810325622559e-01) (7, -3.03384847939014434814e-02) (8, -2.13885568082332611084e-02) (9, 8.25100392103195190430e-02) (10, -5.02539426088333129883e-02) (11, -7.38329589366912841797e-02) (12, -1.95141062140464782715e-01) (13, -8.69945064187049865723e-02) (14, -1.27984508872032165527e-01) (15, -1.84886217117309570312e-01) (16, 7.93706178665161132812e-02) (17, -8.07334575802087783813e-03) (18, 1.14569598808884620667e-02) (19, -8.56473296880722045898e-02) (20, -1.56426608562469482422e-01) (21, -6.66668936610221862793e-02) (22, -1.69314537197351455688e-02) (23, 1.86291575431823730469e-01) (24, 1.47843658924102783203e-01) (25, 1.65864065289497375488e-01) (26, 1.34765923023223876953e-01) (27, 8.69732126593589782715e-02) (28, -1.20771877467632293701e-01) (29, 1.31539538502693176270e-01) (30, 2.26912721991539001465e-01) (31, 1.89182832837104797363e-01) (32, -4.65685166418552398682e-02) (33, 1.09932467341423034668e-01) (34, 1.48415461182594299316e-01) (35, -3.45008634030818939209e-03) (36, -9.78176891803741455078e-02) (37, 1.51702612638473510742e-01) (38, 1.93551823496818542480e-01) (39, -9.52587649226188659668e-03) (40, -1.62709340453147888184e-01) (41, 8.82410258054733276367e-02) (42, -2.32708808034658432007e-02) (43, 1.92403540015220642090e-01) (44, 4.49681058526039123535e-02) (45, -2.71590463817119598389e-02) (46, 1.16566463839262723923e-03) (47, 1.26666799187660217285e-01) (48, -1.69955456256866455078e+00) (0, 1.12520866096019744873e-01) (1, 1.11007224768400192261e-02) (2, 1.37512683868408203125e-01) (3, -6.45956918597221374512e-02) (4, -1.32961142808198928833e-02) (5, -1.42707014456391334534e-02) (6, -2.56757140159606933594e-01) (7, -1.18004478514194488525e-01) (8, 1.27088338136672973633e-01) (9, 1.39612063765525817871e-01) (10, 1.28919795155525207520e-01) (11, -1.84419322758913040161e-02) (12, -9.02473106980323791504e-02) (13, -3.72024446725845336914e-01) (14, -1.90693020820617675781e-01) (15, -3.64399522542953491211e-01) (16, 2.02222332358360290527e-01) (17, 2.14810460805892944336e-01) (18, -3.98701019585132598877e-02) (19, 3.24367824941873550415e-03) (20, -5.60948513448238372803e-02) (21, 2.38510638475418090820e-01) (22, 1.96960747241973876953e-01) (23, 3.72706443071365356445e-01) (24, 2.11314827203750610352e-01) (25, 3.84043157100677490234e-02) (26, 3.01699966192245483398e-01) (27, 7.78930485248565673828e-02) (28, 5.16403140500187873840e-03) (29, -3.00847832113504409790e-02) (30, 1.50847509503364562988e-01) (31, 5.40845036506652832031e-01) (32, -3.00721168518066406250e-01) (33, 2.45421528816223144531e-01) (34, 1.33442670106887817383e-01) (35, -4.67461720108985900879e-02) (36, -1.43092796206474304199e-01) (37, 1.67275503277778625488e-01) (38, 2.53490179777145385742e-01) (39, -1.13399118185043334961e-01) (40, -2.31902346014976501465e-01) (41, 6.02145753800868988037e-02) (42, -1.86071351170539855957e-01) (43, 2.01620668172836303711e-01) (44, 1.48258253931999206543e-01) (45, 1.18998192250728607178e-01) (46, 1.79868325591087341309e-01) (47, -1.25529959797859191895e-01) (48, -1.65779089927673339844e+00) (0, 4.50553521513938903809e-02) (1, -1.05635002255439758301e-01) (2, -1.40366777777671813965e-01) (3, -1.06852687895298004150e-01) (4, -1.82731613516807556152e-01) (5, -7.11253210902214050293e-02) (6, -1.94596603512763977051e-01) (7, -2.39765346050262451172e-01) (8, 1.16899006068706512451e-01) (9, -2.67340600490570068359e-01) (10, -1.52644142508506774902e-01) (11, -2.83277064561843872070e-01) (12, -2.15889334678649902344e-01) (13, -9.28306579589843750000e-02) (14, -5.78540377318859100342e-03) (15, -8.65741521120071411133e-02) (16, 9.21312440186738967896e-03) (17, -1.66958615183830261230e-01) (18, -2.48804509639739990234e-01) (19, -2.54213035106658935547e-01) (20, -4.08051490783691406250e-01) (21, -2.65623599290847778320e-01) (22, -1.91927865147590637207e-01) (23, -9.10645723342895507812e-02) (24, -1.29822686314582824707e-01) (25, -2.83474683761596679688e-01) (26, -8.19650292396545410156e-02) (27, -2.43777319788932800293e-01) (28, -1.36696100234985351562e-01) (29, -1.77801117300987243652e-01) (30, -1.53159752488136291504e-01) (31, -2.95132577419281005859e-01) (32, -1.35538160800933837891e-01) (33, -2.24439665675163269043e-01) (34, -2.85720437765121459961e-01) (35, -3.57268482446670532227e-01) (36, -4.22797292470932006836e-01) (37, -2.33635768294334411621e-01) (38, -2.44739502668380737305e-01) (39, -1.18705675005912780762e-01) (40, -1.50951072573661804199e-01) (41, -2.53069937229156494141e-01) (42, -1.14605054259300231934e-01) (43, -3.50380629301071166992e-01) (44, -2.61842966079711914062e-01) (45, -2.40708097815513610840e-01) (46, -1.97530582547187805176e-01) (47, 3.80808040499687194824e-02) (48, -1.40423464775085449219e+00) (0, -8.14504250884056091309e-02) (1, -3.05032134056091308594e-01) (2, -6.12178072333335876465e-02) (3, -1.14345811307430267334e-02) (4, -3.66588115692138671875e-01) (5, -1.36286541819572448730e-01) (6, -1.53271824121475219727e-01) (7, 6.38542398810386657715e-02) (8, -2.94282406568527221680e-01) (9, -2.66844689846038818359e-01) (10, 1.10562413930892944336e-01) (11, 1.23553268611431121826e-01) (12, -5.95083832740783691406e-01) (13, -8.73288512229919433594e-02) (14, 1.24799802899360656738e-01) (15, 7.38395899534225463867e-02) (16, -1.87404245138168334961e-01) (17, -4.95250612497329711914e-01) (18, 2.24529892206192016602e-01) (19, 1.97127312421798706055e-01) (20, -3.62396210432052612305e-01) (21, -8.70944336056709289551e-02) (22, 3.66107285022735595703e-01) (23, 4.04496908187866210938e-01) (24, -3.20569455623626708984e-01) (25, -1.83095693588256835938e-01) (26, 1.02309718728065490723e-01) (27, -1.32918015122413635254e-01) (28, -2.60002613067626953125e-01) (29, 2.48933598399162292480e-01) (30, 6.77362918853759765625e-01) (31, 3.21701705455780029297e-01) (32, 4.10665534436702728271e-02) (33, -2.25513298064470291138e-02) (34, 4.49735760688781738281e-01) (35, 3.95641386508941650391e-01) (36, -9.63096395134925842285e-02) (37, 4.50128942728042602539e-01) (38, 5.01942992210388183594e-01) (39, 3.48488129675388336182e-02) (40, -9.22227203845977783203e-02) (41, 3.94289158284664154053e-02) (42, 4.10047322511672973633e-01) (43, 2.68014818429946899414e-01) (44, -1.02710850536823272705e-01) (45, 1.94779708981513977051e-01) (46, -3.21601927280426025391e-02) (47, 1.18985828012228012085e-02) (48, -1.98294663429260253906e+00) (0, -3.39141041040420532227e-02) (1, -8.83492752909660339355e-02) (2, -1.92782014608383178711e-01) (3, -3.99495251476764678955e-02) (4, -1.38072669506072998047e-01) (5, -1.92727714776992797852e-01) (6, 1.59960668534040451050e-02) (7, -1.28831833600997924805e-01) (8, 8.53935852646827697754e-02) (9, -4.35960531234741210938e-01) (10, -7.24411010742187500000e-02) (11, -1.91232725977897644043e-01) (12, -1.46453797817230224609e-01) (13, -8.67549926042556762695e-02) (14, 6.99739009141921997070e-02) (15, -1.55458480119705200195e-01) (16, -2.49557986855506896973e-01) (17, -5.17582893371582031250e-01) (18, -9.59482565522193908691e-02) (19, -2.46740713715553283691e-01) (20, -2.54953622817993164062e-01) (21, -2.78742998838424682617e-01) (22, -2.49856531620025634766e-01) (23, 5.69454394280910491943e-02) (24, -3.64575982093811035156e-01) (25, -4.35426831245422363281e-01) (26, -2.72119253873825073242e-01) (27, -2.28667989373207092285e-01) (28, -3.88451486825942993164e-01) (29, -2.21755549311637878418e-01) (30, -1.06104835867881774902e-01) (31, -8.58317017555236816406e-02) (32, -6.70769810676574707031e-02) (33, -3.93380731344223022461e-01) (34, -3.94123584032058715820e-01) (35, -4.20783102512359619141e-01) (36, -2.71942228078842163086e-01) (37, -8.34457203745841979980e-02) (38, -1.93026319146156311035e-01) (39, 1.87414363026618957520e-02) (40, -4.50472831726074218750e-02) (41, -3.02629411220550537109e-01) (42, -1.71485871076583862305e-01) (43, -3.42449605464935302734e-01) (44, -3.56131643056869506836e-01) (45, -2.88019359111785888672e-01) (46, -1.57627761363983154297e-01) (47, 7.62349143624305725098e-02) (48, -1.45455086231231689453e+00) (0, -4.47843223810195922852e-02) (1, -1.13099524751305580139e-02) (2, -5.27881681919097900391e-02) (3, -1.14595212042331695557e-01) (4, -1.62017524242401123047e-01) (5, -7.04065114259719848633e-02) (6, -1.44745647907257080078e-01) (7, -7.73412361741065979004e-02) (8, 6.94306800141930580139e-04) (9, -7.47381076216697692871e-02) (10, -4.13140505552291870117e-02) (11, -4.04078178107738494873e-02) (12, -7.05142831429839134216e-03) (13, -7.75000825524330139160e-02) (14, -4.90680374205112457275e-02) (15, -1.11472144722938537598e-01) (16, 1.32981702685356140137e-01) (17, 6.16277195513248443604e-02) (18, -1.62435531616210937500e-01) (19, -3.78017425537109375000e-02) (20, -2.37983778119087219238e-01) (21, -2.37704396247863769531e-01) (22, -2.24314764142036437988e-01) (23, -6.42322152853012084961e-02) (24, -5.17375804483890533447e-02) (25, -2.03068032860755920410e-01) (26, -9.18127372860908508301e-02) (27, -2.02735856175422668457e-01) (28, -1.00964918732643127441e-01) (29, -8.44311788678169250488e-02) (30, -1.89654878340661525726e-03) (31, -1.14375367760658264160e-01) (32, -1.55517980456352233887e-01) (33, -1.60142987966537475586e-01) (34, -1.88808992505073547363e-01) (35, -2.79485821723937988281e-01) (36, -2.13943943381309509277e-01) (37, -7.79335647821426391602e-02) (38, 6.71030953526496887207e-03) (39, 1.21242580935359001160e-02) (40, -2.62534439563751220703e-01) (41, -7.74766653776168823242e-02) (42, -7.29202926158905029297e-02) (43, -2.71346390247344970703e-01) (44, -1.45904541015625000000e-01) (45, -6.26123696565628051758e-02) (46, 8.28345026820898056030e-03) (47, 6.22230917215347290039e-02) (48, -1.58427810668945312500e+00) (0, -2.37314641475677490234e-01) (1, -6.33070841431617736816e-02) (2, 4.31906059384346008301e-02) (3, -1.89897462725639343262e-01) (4, -1.50808379054069519043e-01) (5, -1.36395454406738281250e-01) (6, -1.72895133495330810547e-01) (7, 4.30517457425594329834e-02) (8, -1.44136920571327209473e-01) (9, -5.45421019196510314941e-02) (10, -3.52465286850929260254e-02) (11, -8.51126834750175476074e-02) (12, -3.22172105312347412109e-01) (13, -1.17150157690048217773e-01) (14, -1.21771186590194702148e-01) (15, 1.02540865540504455566e-01) (16, -5.49219287931919097900e-02) (17, 6.88169449567794799805e-02) (18, -8.17247852683067321777e-02) (19, -1.36074349284172058105e-01) (20, -6.91702067852020263672e-02) (21, -1.61375403404235839844e-01) (22, -5.03158383071422576904e-02) (23, -1.61117032170295715332e-01) (24, -5.64986094832420349121e-02) (25, -7.55302533507347106934e-02) (26, -2.12751820683479309082e-01) (27, -1.89820617437362670898e-01) (28, -3.33659797906875610352e-01) (29, -2.16765046119689941406e-01) (30, -2.62622386217117309570e-01) (31, -1.47375941276550292969e-01) (32, 1.35492518544197082520e-01) (33, -1.64018914103507995605e-01) (34, -1.60243451595306396484e-01) (35, -2.37422421574592590332e-01) (36, -2.57954180240631103516e-01) (37, -1.61950811743736267090e-01) (38, -3.76099199056625366211e-02) (39, -1.78090199828147888184e-01) (40, 4.44637238979339599609e-02) (41, 2.08277199417352676392e-02) (42, -7.33886510133743286133e-02) (43, -3.18092852830886840820e-01) (44, -2.89689868688583374023e-01) (45, -2.54495263099670410156e-01) (46, -1.41134694218635559082e-01) (47, -1.58523634076118469238e-01) (48, -1.54816496372222900391e+00) (0, -9.64449718594551086426e-02) (1, -1.73775851726531982422e-01) (2, -5.14693334698677062988e-02) (3, -4.90337796509265899658e-02) (4, -2.63454109430313110352e-01) (5, -1.14816613495349884033e-01) (6, -4.81043942272663116455e-02) (7, 6.92746341228485107422e-02) (8, -1.45111024379730224609e-01) (9, -2.11241766810417175293e-01) (10, 1.03861942887306213379e-01) (11, 3.49874980747699737549e-02) (12, -3.60051065683364868164e-01) (13, -1.33045062422752380371e-01) (14, -1.11134454607963562012e-01) (15, 2.30118557810783386230e-01) (16, -1.89301595091819763184e-01) (17, -5.67085631191730499268e-02) (18, -5.93660958111286163330e-02) (19, -1.52503818273544311523e-01) (20, -3.33761841058731079102e-01) (21, -1.70408815145492553711e-01) (22, -1.93035081028938293457e-01) (23, -3.02612066268920898438e-01) (24, -1.48654967546463012695e-01) (25, -6.35073855519294738770e-02) (26, -2.34878093004226684570e-01) (27, -2.63941138982772827148e-01) (28, -3.89390289783477783203e-01) (29, -2.86591619253158569336e-01) (30, -4.98474091291427612305e-01) (31, -3.20104509592056274414e-01) (32, 1.03436440229415893555e-01) (33, -2.26373121142387390137e-01) (34, -2.97449231147766113281e-01) (35, -4.50023263692855834961e-01) (36, -3.69946002960205078125e-01) (37, -3.53424459695816040039e-01) (38, -1.00803658366203308105e-01) (39, -8.65695774555206298828e-02) (40, 1.95817604660987854004e-01) (41, 